digraph Tree {
node [shape=box, style="rounded", color="black", fontname=helvetica] ;
edge [fontname=helvetica] ;
0 [label="median_home_value_sq <= 0.6\nfriedman_mse = 17049207.3\nsamples = 5574\nvalue = 0.0"] ;
1 [label="log_population <= 0.5\nfriedman_mse = 9152218.5\nsamples = 4697\nvalue = 1164.0"] ;
0 -> 1 [labeldistance=2.5, labelangle=45, headlabel="True"] ;
2 [label="friedman_mse = 7395659.8\nsamples = 3352\nvalue = 400.9"] ;
1 -> 2 ;
3 [label="friedman_mse = 8461592.5\nsamples = 1345\nvalue = 3065.8"] ;
1 -> 3 ;
4 [label="median_home_value <= 2.0\nfriedman_mse = 13223583.6\nsamples = 877\nvalue = -6234.1"] ;
0 -> 4 [labeldistance=2.5, labelangle=-45, headlabel="False"] ;
5 [label="friedman_mse = 6538001.9\nsamples = 554\nvalue = -4204.6"] ;
4 -> 5 ;
6 [label="friedman_mse = 5509535.3\nsamples = 323\nvalue = -9715.0"] ;
4 -> 6 ;
}