digraph Tree {
node [shape=box, style="rounded", color="black", fontname=helvetica] ;
edge [fontname=helvetica] ;
0 [label="median_home_value_sq <= 0.6\nmse = 17688254.2\nsamples = 3507\nvalue = 42144.8"] ;
1 [label="log_population <= 0.5\nmse = 9119124.8\nsamples = 2956\nvalue = 43381.8"] ;
0 -> 1 [labeldistance=2.5, labelangle=45, headlabel="True"] ;
2 [label="median_home_value <= -0.3\nmse = 7220013.7\nsamples = 2104\nvalue = 42571.1"] ;
1 -> 2 ;
3 [label="log_population <= -0.5\nmse = 6119638.8\nsamples = 1168\nvalue = 43541.7"] ;
2 -> 3 ;
4 [label="median_income_sqrt <= -1.1\nmse = 5322959.4\nsamples = 561\nvalue = 42680.8"] ;
3 -> 4 ;
5 [label="log_population <= -1.3\nmse = 5142020.9\nsamples = 197\nvalue = 43909.7"] ;
4 -> 5 ;
6 [label="age <= 1.3\nmse = 6172288.0\nsamples = 41\nvalue = 42222.8"] ;
5 -> 6 ;
7 [label="crim <= 1.1\nmse = 5393899.1\nsamples = 35\nvalue = 42785.4"] ;
6 -> 7 ;
8 [label="crim <= -0.1\nmse = 2535620.8\nsamples = 8\nvalue = 44850.7"] ;
7 -> 8 ;
9 [label="ptratio <= 0.3\nmse = 240564.2\nsamples = 3\nvalue = 43367.1"] ;
8 -> 9 ;
10 [label="mse = 93808.0\nsamples = 2\nvalue = 43128.9"] ;
9 -> 10 ;
11 [label="mse = 0.0\nsamples = 1\nvalue = 44081.6"] ;
9 -> 11 ;
12 [label="tax <= 1.7\nmse = 1201955.9\nsamples = 5\nvalue = 46037.6"] ;
8 -> 12 ;
13 [label="mse = 0.0\nsamples = 1\nvalue = 48191.2"] ;
12 -> 13 ;
14 [label="mse = 53061.3\nsamples = 4\nvalue = 45499.2"] ;
12 -> 14 ;
15 [label="median_income_sqrt <= -1.4\nmse = 4912560.1\nsamples = 27\nvalue = 42353.2"] ;
7 -> 15 ;
16 [label="indus <= 1.3\nmse = 1957829.5\nsamples = 12\nvalue = 40977.8"] ;
15 -> 16 ;
17 [label="mse = 936099.5\nsamples = 10\nvalue = 41323.2"] ;
16 -> 17 ;
18 [label="mse = 1007423.7\nsamples = 2\nvalue = 38041.7"] ;
16 -> 18 ;
19 [label="crim <= 1.3\nmse = 4568560.8\nsamples = 15\nvalue = 43442.0"] ;
15 -> 19 ;
20 [label="mse = 0.0\nsamples = 1\nvalue = 36816.5"] ;
19 -> 20 ;
21 [label="mse = 2775595.7\nsamples = 14\nvalue = 43730.1"] ;
19 -> 21 ;
22 [label="indus <= 1.2\nmse = 2229903.8\nsamples = 6\nvalue = 39784.8"] ;
6 -> 22 ;
23 [label="rm <= -1.6\nmse = 25296.9\nsamples = 2\nvalue = 37742.7"] ;
22 -> 23 ;
24 [label="mse = 0.0\nsamples = 1\nvalue = 37583.6"] ;
23 -> 24 ;
25 [label="mse = 0.0\nsamples = 1\nvalue = 37901.7"] ;
23 -> 25 ;
26 [label="rm <= -0.1\nmse = 204332.8\nsamples = 4\nvalue = 40805.9"] ;
22 -> 26 ;
27 [label="indus <= 1.3\nmse = 75366.9\nsamples = 3\nvalue = 40584.0"] ;
26 -> 27 ;
28 [label="mse = 0.0\nsamples = 1\nvalue = 39977.6"] ;
27 -> 28 ;
29 [label="mse = 2180.5\nsamples = 2\nvalue = 40705.3"] ;
27 -> 29 ;
30 [label="mse = -0.0\nsamples = 1\nvalue = 41471.8"] ;
26 -> 30 ;
31 [label="median_income_sqrt <= -1.3\nmse = 3869136.8\nsamples = 156\nvalue = 44371.0"] ;
5 -> 31 ;
32 [label="log_population <= -1.2\nmse = 3610544.2\nsamples = 102\nvalue = 44821.1"] ;
31 -> 32 ;
33 [label="median_income_sqrt <= -1.5\nmse = 3890027.8\nsamples = 6\nvalue = 46897.4"] ;
32 -> 33 ;
34 [label="median_income_sqrt <= -1.5\nmse = 1301855.4\nsamples = 4\nvalue = 47906.5"] ;
33 -> 34 ;
35 [label="mse = 235198.5\nsamples = 3\nvalue = 47294.0"] ;
34 -> 35 ;
36 [label="mse = 0.0\nsamples = 1\nvalue = 49744.0"] ;
34 -> 36 ;
37 [label="age <= 0.6\nmse = 834847.3\nsamples = 2\nvalue = 44206.4"] ;
33 -> 37 ;
38 [label="mse = 0.0\nsamples = 1\nvalue = 44852.5"] ;
37 -> 38 ;
39 [label="mse = 0.0\nsamples = 1\nvalue = 42914.2"] ;
37 -> 39 ;
40 [label="rm <= -2.1\nmse = 3242900.2\nsamples = 96\nvalue = 44665.7"] ;
32 -> 40 ;
41 [label="indus <= 2.1\nmse = 1958231.7\nsamples = 5\nvalue = 42721.9"] ;
40 -> 41 ;
42 [label="mse = 720699.2\nsamples = 3\nvalue = 41967.5"] ;
41 -> 42 ;
43 [label="mse = 71936.6\nsamples = 2\nvalue = 44608.0"] ;
41 -> 43 ;
44 [label="median_income_sqrt <= -2.4\nmse = 3108759.5\nsamples = 91\nvalue = 44762.9"] ;
40 -> 44 ;
45 [label="mse = 592692.1\nsamples = 2\nvalue = 47258.9"] ;
44 -> 45 ;
46 [label="mse = 2994135.7\nsamples = 89\nvalue = 44689.5"] ;
44 -> 46 ;
47 [label="rm <= 0.9\nmse = 3110135.2\nsamples = 54\nvalue = 43435.4"] ;
31 -> 47 ;
48 [label="median_home_value_sq <= -1.0\nmse = 2686957.7\nsamples = 52\nvalue = 43607.9"] ;
47 -> 48 ;
49 [label="median_home_value_sq <= -1.0\nmse = 1165011.9\nsamples = 3\nvalue = 47099.0"] ;
48 -> 49 ;
50 [label="mse = 0.0\nsamples = 1\nvalue = 48607.4"] ;
49 -> 50 ;
51 [label="mse = 41117.7\nsamples = 2\nvalue = 46344.9"] ;
49 -> 51 ;
52 [label="rm <= 0.7\nmse = 2200159.4\nsamples = 49\nvalue = 43456.1"] ;
48 -> 52 ;
53 [label="mse = 2003771.4\nsamples = 48\nvalue = 43543.2"] ;
52 -> 53 ;
54 [label="mse = -0.0\nsamples = 1\nvalue = 40536.4"] ;
52 -> 54 ;
55 [label="median_income_sqrt <= -1.1\nmse = 552569.2\nsamples = 2\nvalue = 40330.7"] ;
47 -> 55 ;
56 [label="mse = 0.0\nsamples = 1\nvalue = 39587.3"] ;
55 -> 56 ;
57 [label="mse = -0.0\nsamples = 1\nvalue = 41074.0"] ;
55 -> 57 ;
58 [label="log_population <= -1.6\nmse = 4258925.0\nsamples = 364\nvalue = 42056.9"] ;
4 -> 58 ;
59 [label="zn <= -0.6\nmse = 4599669.3\nsamples = 28\nvalue = 40112.1"] ;
58 -> 59 ;
60 [label="age <= -0.3\nmse = 3226199.0\nsamples = 17\nvalue = 39228.3"] ;
59 -> 60 ;
61 [label="tax <= -1.2\nmse = 767591.2\nsamples = 4\nvalue = 37250.2"] ;
60 -> 61 ;
62 [label="mse = 0.0\nsamples = 1\nvalue = 38628.6"] ;
61 -> 62 ;
63 [label="rm <= -1.3\nmse = 10716.8\nsamples = 3\nvalue = 36698.9"] ;
61 -> 63 ;
64 [label="mse = 0.0\nsamples = 1\nvalue = 36825.2"] ;
63 -> 64 ;
65 [label="mse = 121.5\nsamples = 2\nvalue = 36614.6"] ;
63 -> 65 ;
66 [label="age <= 1.5\nmse = 2159280.1\nsamples = 13\nvalue = 39957.1"] ;
60 -> 66 ;
67 [label="median_income_sqrt <= 0.2\nmse = 1270819.8\nsamples = 12\nvalue = 40187.5"] ;
66 -> 67 ;
68 [label="mse = 580541.1\nsamples = 10\nvalue = 39880.9"] ;
67 -> 68 ;
69 [label="mse = 26846.8\nsamples = 2\nvalue = 42639.9"] ;
67 -> 69 ;
70 [label="mse = 0.0\nsamples = 1\nvalue = 35810.3"] ;
66 -> 70 ;
71 [label="median_income_sqrt <= 0.3\nmse = 3280188.1\nsamples = 11\nvalue = 41643.9"] ;
59 -> 71 ;
72 [label="median_income_sqrt <= 0.1\nmse = 2798766.2\nsamples = 9\nvalue = 41281.6"] ;
71 -> 72 ;
73 [label="age <= 1.1\nmse = 1442785.9\nsamples = 6\nvalue = 42373.8"] ;
72 -> 73 ;
74 [label="mse = 443913.1\nsamples = 5\nvalue = 42761.9"] ;
73 -> 74 ;
75 [label="mse = -0.0\nsamples = 1\nvalue = 39657.1"] ;
73 -> 75 ;
76 [label="log_population <= -2.0\nmse = 5875.0\nsamples = 3\nvalue = 39534.1"] ;
72 -> 76 ;
77 [label="mse = 0.0\nsamples = 1\nvalue = 39448.7"] ;
76 -> 77 ;
78 [label="mse = 1700.2\nsamples = 2\nvalue = 39591.0"] ;
76 -> 78 ;
79 [label="indus <= -0.8\nmse = 10864.9\nsamples = 2\nvalue = 43998.8"] ;
71 -> 79 ;
80 [label="mse = 0.0\nsamples = 1\nvalue = 43894.5"] ;
79 -> 80 ;
81 [label="mse = 0.0\nsamples = 1\nvalue = 44103.0"] ;
79 -> 81 ;
82 [label="log_population <= -1.0\nmse = 3927982.9\nsamples = 336\nvalue = 42203.0"] ;
58 -> 82 ;
83 [label="ptratio <= 0.2\nmse = 4304434.4\nsamples = 149\nvalue = 41845.9"] ;
82 -> 83 ;
84 [label="ptratio <= -2.1\nmse = 3044431.4\nsamples = 44\nvalue = 41114.9"] ;
83 -> 84 ;
85 [label="indus <= -1.0\nmse = 302394.9\nsamples = 2\nvalue = 44259.8"] ;
84 -> 85 ;
86 [label="mse = 0.0\nsamples = 1\nvalue = 43942.3"] ;
85 -> 86 ;
87 [label="mse = -0.0\nsamples = 1\nvalue = 45212.3"] ;
85 -> 87 ;
88 [label="crim <= -0.4\nmse = 2603660.7\nsamples = 42\nvalue = 40935.2"] ;
84 -> 88 ;
89 [label="mse = 1652152.0\nsamples = 19\nvalue = 41877.5"] ;
88 -> 89 ;
90 [label="mse = 2331192.8\nsamples = 23\nvalue = 40378.4"] ;
88 -> 90 ;
91 [label="ptratio <= 0.3\nmse = 4515762.1\nsamples = 105\nvalue = 42155.0"] ;
83 -> 91 ;
92 [label="indus <= 0.5\nmse = 2853138.1\nsamples = 5\nvalue = 44295.3"] ;
91 -> 92 ;
93 [label="mse = 11.0\nsamples = 2\nvalue = 41666.1"] ;
92 -> 93 ;
94 [label="mse = 731866.7\nsamples = 3\nvalue = 45171.7"] ;
92 -> 94 ;
95 [label="rm <= -0.1\nmse = 4276076.0\nsamples = 100\nvalue = 41997.4"] ;
91 -> 95 ;
96 [label="mse = 4685809.2\nsamples = 75\nvalue = 41696.4"] ;
95 -> 96 ;
97 [label="mse = 2557571.6\nsamples = 25\nvalue = 42718.4"] ;
95 -> 97 ;
98 [label="median_home_value <= -1.1\nmse = 3415840.4\nsamples = 187\nvalue = 42502.3"] ;
82 -> 98 ;
99 [label="age <= 1.3\nmse = 1312386.8\nsamples = 6\nvalue = 45170.6"] ;
98 -> 99 ;
100 [label="rm <= -0.3\nmse = 454436.4\nsamples = 5\nvalue = 45532.1"] ;
99 -> 100 ;
101 [label="mse = 812.1\nsamples = 3\nvalue = 46310.1"] ;
100 -> 101 ;
102 [label="mse = 281.6\nsamples = 2\nvalue = 44948.6"] ;
100 -> 102 ;
103 [label="mse = 0.0\nsamples = 1\nvalue = 42640.1"] ;
99 -> 103 ;
104 [label="median_income_sqrt <= -0.7\nmse = 3271527.9\nsamples = 181\nvalue = 42428.5"] ;
98 -> 104 ;
105 [label="ptratio <= -0.8\nmse = 2376230.8\nsamples = 55\nvalue = 42963.6"] ;
104 -> 105 ;
106 [label="mse = 1271615.7\nsamples = 5\nvalue = 40741.9"] ;
105 -> 106 ;
107 [label="mse = 1931344.2\nsamples = 50\nvalue = 43191.5"] ;
105 -> 107 ;
108 [label="crim <= -0.4\nmse = 3478108.3\nsamples = 126\nvalue = 42201.8"] ;
104 -> 108 ;
109 [label="mse = 2375334.3\nsamples = 22\nvalue = 43255.5"] ;
108 -> 109 ;
110 [label="mse = 3434783.6\nsamples = 104\nvalue = 41997.2"] ;
108 -> 110 ;
111 [label="age <= 0.3\nmse = 5554479.7\nsamples = 607\nvalue = 44326.4"] ;
3 -> 111 ;
112 [label="log_population <= -0.1\nmse = 4290112.1\nsamples = 117\nvalue = 42827.7"] ;
111 -> 112 ;
113 [label="median_home_value_sq <= -0.5\nmse = 3973084.8\nsamples = 42\nvalue = 41922.3"] ;
112 -> 113 ;
114 [label="age <= -1.0\nmse = 3213095.1\nsamples = 12\nvalue = 43567.8"] ;
113 -> 114 ;
115 [label="median_home_value_sq <= -0.5\nmse = 448047.8\nsamples = 3\nvalue = 41406.1"] ;
114 -> 115 ;
116 [label="mse = 0.0\nsamples = 1\nvalue = 40067.5"] ;
115 -> 116 ;
117 [label="indus <= -0.8\nmse = 116.6\nsamples = 2\nvalue = 41740.8"] ;
115 -> 117 ;
118 [label="mse = 0.0\nsamples = 1\nvalue = 41722.1"] ;
117 -> 118 ;
119 [label="mse = 0.0\nsamples = 1\nvalue = 41747.0"] ;
117 -> 119 ;
120 [label="median_home_value <= -0.7\nmse = 1607021.4\nsamples = 9\nvalue = 44468.4"] ;
114 -> 120 ;
121 [label="zn <= 1.0\nmse = 527199.4\nsamples = 2\nvalue = 46554.2"] ;
120 -> 121 ;
122 [label="mse = 0.0\nsamples = 1\nvalue = 45828.1"] ;
121 -> 122 ;
123 [label="mse = 0.0\nsamples = 1\nvalue = 47280.3"] ;
121 -> 123 ;
124 [label="rm <= -0.6\nmse = 778903.6\nsamples = 7\nvalue = 44051.3"] ;
120 -> 124 ;
125 [label="mse = 298092.5\nsamples = 4\nvalue = 44649.1"] ;
124 -> 125 ;
126 [label="mse = 160075.3\nsamples = 3\nvalue = 43154.6"] ;
124 -> 126 ;
127 [label="zn <= -0.7\nmse = 2883619.4\nsamples = 30\nvalue = 41314.2"] ;
113 -> 127 ;
128 [label="log_population <= -0.2\nmse = 30065.6\nsamples = 2\nvalue = 38159.9"] ;
127 -> 128 ;
129 [label="mse = 0.0\nsamples = 1\nvalue = 37947.6"] ;
128 -> 129 ;
130 [label="mse = 0.0\nsamples = 1\nvalue = 38301.5"] ;
128 -> 130 ;
131 [label="crim <= -0.5\nmse = 1870252.8\nsamples = 28\nvalue = 41698.9"] ;
127 -> 131 ;
132 [label="zn <= 2.6\nmse = 2373631.4\nsamples = 6\nvalue = 43059.9"] ;
131 -> 132 ;
133 [label="mse = 978020.1\nsamples = 5\nvalue = 43565.8"] ;
132 -> 133 ;
134 [label="mse = -0.0\nsamples = 1\nvalue = 40024.8"] ;
132 -> 134 ;
135 [label="indus <= -0.5\nmse = 1306754.7\nsamples = 22\nvalue = 41418.7"] ;
131 -> 135 ;
136 [label="mse = 213634.5\nsamples = 7\nvalue = 40622.7"] ;
135 -> 136 ;
137 [label="mse = 1368865.3\nsamples = 15\nvalue = 41852.9"] ;
135 -> 137 ;
138 [label="crim <= -0.5\nmse = 3817641.4\nsamples = 75\nvalue = 43291.4"] ;
112 -> 138 ;
139 [label="median_home_value <= -0.3\nmse = 6093863.0\nsamples = 2\nvalue = 39309.9"] ;
138 -> 139 ;
140 [label="mse = 0.0\nsamples = 1\nvalue = 43585.6"] ;
139 -> 140 ;
141 [label="mse = -0.0\nsamples = 1\nvalue = 37884.7"] ;
139 -> 141 ;
142 [label="tax <= -0.2\nmse = 3190371.2\nsamples = 73\nvalue = 43425.2"] ;
138 -> 142 ;
143 [label="tax <= -1.2\nmse = 1648772.0\nsamples = 31\nvalue = 44031.7"] ;
142 -> 143 ;
144 [label="mse = 0.0\nsamples = 1\nvalue = 41093.2"] ;
143 -> 144 ;
145 [label="ptratio <= 0.6\nmse = 1328731.5\nsamples = 30\nvalue = 44159.4"] ;
143 -> 145 ;
146 [label="mse = 1103692.4\nsamples = 22\nvalue = 43837.9"] ;
145 -> 146 ;
147 [label="mse = 1066601.0\nsamples = 8\nvalue = 44894.4"] ;
145 -> 147 ;
148 [label="median_income_sqrt <= -0.8\nmse = 3815871.1\nsamples = 42\nvalue = 43015.2"] ;
142 -> 148 ;
149 [label="median_home_value <= -0.4\nmse = 904671.9\nsamples = 3\nvalue = 40314.9"] ;
148 -> 149 ;
150 [label="mse = 359981.8\nsamples = 2\nvalue = 39637.3"] ;
149 -> 150 ;
151 [label="mse = 0.0\nsamples = 1\nvalue = 41331.3"] ;
149 -> 151 ;
152 [label="median_home_value_sq <= -0.5\nmse = 3442157.1\nsamples = 39\nvalue = 43219.8"] ;
148 -> 152 ;
153 [label="mse = 2926012.6\nsamples = 8\nvalue = 44606.7"] ;
152 -> 153 ;
154 [label="mse = 2794919.0\nsamples = 31\nvalue = 42776.0"] ;
152 -> 154 ;
155 [label="median_home_value_sq <= -0.9\nmse = 5195754.2\nsamples = 490\nvalue = 44681.5"] ;
111 -> 155 ;
156 [label="tax <= 1.3\nmse = 6701090.2\nsamples = 56\nvalue = 46206.7"] ;
155 -> 156 ;
157 [label="tax <= 1.1\nmse = 261920.8\nsamples = 3\nvalue = 50650.1"] ;
156 -> 157 ;
158 [label="mse = -0.0\nsamples = 1\nvalue = 49946.8"] ;
157 -> 158 ;
159 [label="ptratio <= 1.3\nmse = 71375.2\nsamples = 2\nvalue = 50951.5"] ;
157 -> 159 ;
160 [label="mse = 0.0\nsamples = 1\nvalue = 50643.0"] ;
159 -> 160 ;
161 [label="mse = -0.0\nsamples = 1\nvalue = 51182.8"] ;
159 -> 161 ;
162 [label="log_population <= -0.5\nmse = 4934240.6\nsamples = 53\nvalue = 45701.7"] ;
156 -> 162 ;
163 [label="rm <= -0.7\nmse = 1886143.9\nsamples = 4\nvalue = 42760.9"] ;
162 -> 163 ;
164 [label="log_population <= -0.5\nmse = 266813.6\nsamples = 2\nvalue = 41626.3"] ;
163 -> 164 ;
165 [label="mse = 0.0\nsamples = 1\nvalue = 41109.8"] ;
164 -> 165 ;
166 [label="mse = -0.0\nsamples = 1\nvalue = 42142.8"] ;
164 -> 166 ;
167 [label="median_home_value_sq <= -1.0\nmse = 40223.9\nsamples = 2\nvalue = 44273.7"] ;
163 -> 167 ;
168 [label="mse = 0.0\nsamples = 1\nvalue = 43990.1"] ;
167 -> 168 ;
169 [label="mse = -0.0\nsamples = 1\nvalue = 44415.5"] ;
167 -> 169 ;
170 [label="ptratio <= 0.8\nmse = 4385674.8\nsamples = 49\nvalue = 45955.9"] ;
162 -> 170 ;
171 [label="tax <= 1.9\nmse = 4005526.1\nsamples = 21\nvalue = 44894.2"] ;
170 -> 171 ;
172 [label="mse = 2242593.9\nsamples = 11\nvalue = 46260.4"] ;
171 -> 172 ;
173 [label="mse = 1788432.1\nsamples = 10\nvalue = 43442.6"] ;
171 -> 173 ;
174 [label="ptratio <= 1.0\nmse = 3339292.8\nsamples = 28\nvalue = 46685.8"] ;
170 -> 174 ;
175 [label="mse = 3576000.2\nsamples = 15\nvalue = 47587.0"] ;
174 -> 175 ;
176 [label="mse = 1478346.7\nsamples = 13\nvalue = 45784.6"] ;
174 -> 176 ;
177 [label="log_population <= 0.4\nmse = 4601873.1\nsamples = 434\nvalue = 44463.9"] ;
155 -> 177 ;
178 [label="tax <= 2.4\nmse = 4279678.7\nsamples = 407\nvalue = 44336.5"] ;
177 -> 178 ;
179 [label="median_income_sqrt <= -0.7\nmse = 4148101.5\nsamples = 402\nvalue = 44391.5"] ;
178 -> 179 ;
180 [label="median_home_value_sq <= -0.7\nmse = 4194001.9\nsamples = 230\nvalue = 44776.9"] ;
179 -> 180 ;
181 [label="mse = 3631239.9\nsamples = 132\nvalue = 45077.1"] ;
180 -> 181 ;
182 [label="mse = 4687225.0\nsamples = 98\nvalue = 44345.6"] ;
180 -> 182 ;
183 [label="rm <= 0.7\nmse = 3607169.7\nsamples = 172\nvalue = 43866.3"] ;
179 -> 183 ;
184 [label="mse = 3436701.1\nsamples = 167\nvalue = 43783.3"] ;
183 -> 184 ;
185 [label="mse = 2562540.6\nsamples = 5\nvalue = 46272.2"] ;
183 -> 185 ;
186 [label="median_income_sqrt <= -0.9\nmse = 1555862.5\nsamples = 5\nvalue = 41146.0"] ;
178 -> 186 ;
187 [label="indus <= 1.2\nmse = 461791.8\nsamples = 3\nvalue = 40338.8"] ;
186 -> 187 ;
188 [label="mse = 37575.9\nsamples = 2\nvalue = 39764.2"] ;
187 -> 188 ;
189 [label="mse = -0.0\nsamples = 1\nvalue = 41105.0"] ;
187 -> 189 ;
190 [label="age <= 1.1\nmse = 335354.7\nsamples = 2\nvalue = 42558.4"] ;
186 -> 190 ;
191 [label="mse = 0.0\nsamples = 1\nvalue = 43561.5"] ;
190 -> 191 ;
192 [label="mse = -0.0\nsamples = 1\nvalue = 42224.1"] ;
190 -> 192 ;
193 [label="rm <= -1.4\nmse = 5092369.8\nsamples = 27\nvalue = 46639.9"] ;
177 -> 193 ;
194 [label="mse = 0.0\nsamples = 1\nvalue = 52265.9"] ;
193 -> 194 ;
195 [label="rm <= 0.8\nmse = 3519170.3\nsamples = 26\nvalue = 46327.4"] ;
193 -> 195 ;
196 [label="crim <= 0.7\nmse = 2357887.8\nsamples = 23\nvalue = 46664.7"] ;
195 -> 196 ;
197 [label="mse = 1979455.6\nsamples = 21\nvalue = 46841.5"] ;
196 -> 197 ;
198 [label="mse = 225615.5\nsamples = 2\nvalue = 43923.6"] ;
196 -> 198 ;
199 [label="crim <= 0.2\nmse = 1278658.0\nsamples = 3\nvalue = 42617.5"] ;
195 -> 199 ;
200 [label="mse = 12312.1\nsamples = 2\nvalue = 43414.5"] ;
199 -> 200 ;
201 [label="mse = -0.0\nsamples = 1\nvalue = 41023.5"] ;
199 -> 201 ;
202 [label="log_population <= -0.1\nmse = 5889070.8\nsamples = 936\nvalue = 41333.0"] ;
2 -> 202 ;
203 [label="median_home_value <= 0.3\nmse = 5146525.5\nsamples = 545\nvalue = 40586.4"] ;
202 -> 203 ;
204 [label="log_population <= -0.9\nmse = 4529425.7\nsamples = 379\nvalue = 41208.2"] ;
203 -> 204 ;
205 [label="rm <= 1.2\nmse = 4362913.1\nsamples = 138\nvalue = 40210.2"] ;
204 -> 205 ;
206 [label="indus <= -0.7\nmse = 3958853.2\nsamples = 133\nvalue = 40376.4"] ;
205 -> 206 ;
207 [label="age <= -0.3\nmse = 3055087.6\nsamples = 64\nvalue = 41021.8"] ;
206 -> 207 ;
208 [label="crim <= -0.5\nmse = 2322709.5\nsamples = 39\nvalue = 40427.6"] ;
207 -> 208 ;
209 [label="mse = 386245.9\nsamples = 11\nvalue = 41478.0"] ;
208 -> 209 ;
210 [label="mse = 2472155.4\nsamples = 28\nvalue = 39942.7"] ;
208 -> 210 ;
211 [label="ptratio <= 0.4\nmse = 2919444.3\nsamples = 25\nvalue = 41828.2"] ;
207 -> 211 ;
212 [label="mse = 2508722.6\nsamples = 23\nvalue = 41587.5"] ;
211 -> 212 ;
213 [label="mse = 1042737.1\nsamples = 2\nvalue = 44114.8"] ;
211 -> 213 ;
214 [label="crim <= -0.4\nmse = 4069627.7\nsamples = 69\nvalue = 39820.8"] ;
206 -> 214 ;
215 [label="median_income_sqrt <= 0.0\nmse = 4042600.1\nsamples = 19\nvalue = 38666.2"] ;
214 -> 215 ;
216 [label="mse = 2737066.3\nsamples = 8\nvalue = 40088.6"] ;
215 -> 216 ;
217 [label="mse = 2721067.2\nsamples = 11\nvalue = 37741.6"] ;
215 -> 217 ;
218 [label="median_income_sqrt <= 1.0\nmse = 3328052.8\nsamples = 50\nvalue = 40285.5"] ;
214 -> 218 ;
219 [label="mse = 2741125.1\nsamples = 48\nvalue = 40412.2"] ;
218 -> 219 ;
220 [label="mse = 471302.8\nsamples = 2\nvalue = 35216.8"] ;
218 -> 220 ;
221 [label="indus <= -0.9\nmse = 2294727.8\nsamples = 5\nvalue = 37246.9"] ;
205 -> 221 ;
222 [label="mse = 0.0\nsamples = 1\nvalue = 39855.8"] ;
221 -> 222 ;
223 [label="zn <= 0.5\nmse = 34538.3\nsamples = 4\nvalue = 36377.2"] ;
221 -> 223 ;
224 [label="zn <= 0.3\nmse = 8197.2\nsamples = 3\nvalue = 36466.9"] ;
223 -> 224 ;
225 [label="mse = 323.3\nsamples = 2\nvalue = 36389.4"] ;
224 -> 225 ;
226 [label="mse = 0.0\nsamples = 1\nvalue = 36570.3"] ;
224 -> 226 ;
227 [label="mse = 0.0\nsamples = 1\nvalue = 36063.3"] ;
223 -> 227 ;
228 [label="ptratio <= 1.0\nmse = 3714372.2\nsamples = 241\nvalue = 41786.5"] ;
204 -> 228 ;
229 [label="ptratio <= 0.2\nmse = 3371578.2\nsamples = 221\nvalue = 41588.2"] ;
228 -> 229 ;
230 [label="zn <= 0.7\nmse = 3320108.9\nsamples = 158\nvalue = 41851.5"] ;
229 -> 230 ;
231 [label="rm <= 0.4\nmse = 3095575.4\nsamples = 120\nvalue = 42128.3"] ;
230 -> 231 ;
232 [label="mse = 3166407.2\nsamples = 93\nvalue = 42399.6"] ;
231 -> 232 ;
233 [label="mse = 2259961.8\nsamples = 27\nvalue = 41442.4"] ;
231 -> 233 ;
234 [label="crim <= -0.4\nmse = 3084484.1\nsamples = 38\nvalue = 41030.1"] ;
230 -> 234 ;
235 [label="mse = 2837564.9\nsamples = 32\nvalue = 41445.3"] ;
234 -> 235 ;
236 [label="mse = 288204.7\nsamples = 6\nvalue = 39265.7"] ;
234 -> 236 ;
237 [label="zn <= 0.3\nmse = 2902228.9\nsamples = 63\nvalue = 40936.2"] ;
229 -> 237 ;
238 [label="indus <= -0.0\nmse = 2607017.7\nsamples = 49\nvalue = 40635.6"] ;
237 -> 238 ;
239 [label="mse = 2424379.4\nsamples = 29\nvalue = 40198.1"] ;
238 -> 239 ;
240 [label="mse = 2189275.8\nsamples = 20\nvalue = 41272.0"] ;
238 -> 240 ;
241 [label="rm <= -0.1\nmse = 2249966.1\nsamples = 14\nvalue = 42153.6"] ;
237 -> 241 ;
242 [label="mse = 1301439.0\nsamples = 7\nvalue = 43325.1"] ;
241 -> 242 ;
243 [label="mse = 984385.9\nsamples = 7\nvalue = 41195.1"] ;
241 -> 243 ;
244 [label="ptratio <= 2.2\nmse = 3259699.1\nsamples = 20\nvalue = 43571.4"] ;
228 -> 244 ;
245 [label="ptratio <= 1.6\nmse = 2382325.1\nsamples = 19\nvalue = 43274.1"] ;
244 -> 245 ;
246 [label="ptratio <= 1.1\nmse = 1665181.9\nsamples = 15\nvalue = 43753.5"] ;
245 -> 246 ;
247 [label="mse = 588635.6\nsamples = 8\nvalue = 42947.8"] ;
246 -> 247 ;
248 [label="mse = 1377895.7\nsamples = 7\nvalue = 44616.8"] ;
246 -> 248 ;
249 [label="tax <= -0.8\nmse = 455852.8\nsamples = 4\nvalue = 41287.8"] ;
245 -> 249 ;
250 [label="mse = 0.0\nsamples = 1\nvalue = 42281.4"] ;
249 -> 250 ;
251 [label="mse = 85381.9\nsamples = 3\nvalue = 40890.4"] ;
249 -> 251 ;
252 [label="mse = -0.0\nsamples = 1\nvalue = 47138.9"] ;
244 -> 252 ;
253 [label="median_income_sqrt <= 0.1\nmse = 3579033.8\nsamples = 166\nvalue = 39135.4"] ;
203 -> 253 ;
254 [label="tax <= 0.2\nmse = 2882613.5\nsamples = 31\nvalue = 40639.2"] ;
253 -> 254 ;
255 [label="indus <= -0.0\nmse = 2268172.7\nsamples = 29\nvalue = 40855.1"] ;
254 -> 255 ;
256 [label="indus <= -0.3\nmse = 2041174.5\nsamples = 22\nvalue = 41230.7"] ;
255 -> 256 ;
257 [label="crim <= -0.5\nmse = 1608001.5\nsamples = 20\nvalue = 40910.1"] ;
256 -> 257 ;
258 [label="mse = 619147.1\nsamples = 2\nvalue = 42793.7"] ;
257 -> 258 ;
259 [label="mse = 1279818.9\nsamples = 18\nvalue = 40700.8"] ;
257 -> 259 ;
260 [label="indus <= -0.2\nmse = 322615.6\nsamples = 2\nvalue = 43154.4"] ;
256 -> 260 ;
261 [label="mse = 0.0\nsamples = 1\nvalue = 42690.7"] ;
260 -> 261 ;
262 [label="mse = 0.0\nsamples = 1\nvalue = 43850.1"] ;
260 -> 262 ;
263 [label="rm <= -0.2\nmse = 1319204.7\nsamples = 7\nvalue = 39759.8"] ;
255 -> 263 ;
264 [label="log_population <= -1.2\nmse = 69339.8\nsamples = 3\nvalue = 40966.4"] ;
263 -> 264 ;
265 [label="mse = 0.0\nsamples = 1\nvalue = 41284.6"] ;
264 -> 265 ;
266 [label="mse = 3111.6\nsamples = 2\nvalue = 40754.4"] ;
264 -> 266 ;
267 [label="age <= 0.1\nmse = 429193.7\nsamples = 4\nvalue = 38898.0"] ;
263 -> 267 ;
268 [label="mse = 150994.6\nsamples = 3\nvalue = 39121.5"] ;
267 -> 268 ;
269 [label="mse = -0.0\nsamples = 1\nvalue = 37556.8"] ;
267 -> 269 ;
270 [label="median_home_value_sq <= 0.4\nmse = 338373.8\nsamples = 2\nvalue = 37256.9"] ;
254 -> 270 ;
271 [label="mse = 0.0\nsamples = 1\nvalue = 38079.6"] ;
270 -> 271 ;
272 [label="mse = -0.0\nsamples = 1\nvalue = 36845.6"] ;
270 -> 272 ;
273 [label="median_home_value_sq <= 0.1\nmse = 3089918.2\nsamples = 135\nvalue = 38784.1"] ;
253 -> 273 ;
274 [label="tax <= 0.3\nmse = 2353079.3\nsamples = 3\nvalue = 35326.6"] ;
273 -> 274 ;
275 [label="zn <= 0.8\nmse = 328166.8\nsamples = 2\nvalue = 34603.7"] ;
274 -> 275 ;
276 [label="mse = 0.0\nsamples = 1\nvalue = 35595.9"] ;
275 -> 276 ;
277 [label="mse = 0.0\nsamples = 1\nvalue = 34272.9"] ;
275 -> 277 ;
278 [label="mse = -0.0\nsamples = 1\nvalue = 38218.4"] ;
274 -> 278 ;
279 [label="ptratio <= -0.6\nmse = 2814722.9\nsamples = 132\nvalue = 38866.8"] ;
273 -> 279 ;
280 [label="log_population <= -0.5\nmse = 2557995.8\nsamples = 60\nvalue = 39229.1"] ;
279 -> 280 ;
281 [label="ptratio <= -0.6\nmse = 2675563.4\nsamples = 49\nvalue = 38935.2"] ;
280 -> 281 ;
282 [label="mse = 2388754.8\nsamples = 47\nvalue = 38812.5"] ;
281 -> 282 ;
283 [label="mse = 212947.7\nsamples = 2\nvalue = 41962.7"] ;
281 -> 283 ;
284 [label="age <= -1.1\nmse = 786482.6\nsamples = 11\nvalue = 40257.5"] ;
280 -> 284 ;
285 [label="mse = 137859.0\nsamples = 5\nvalue = 41298.2"] ;
284 -> 285 ;
286 [label="mse = 184756.1\nsamples = 6\nvalue = 39662.9"] ;
284 -> 286 ;
287 [label="age <= -0.6\nmse = 2821361.1\nsamples = 72\nvalue = 38540.7"] ;
279 -> 287 ;
288 [label="median_home_value_sq <= 0.3\nmse = 2578112.1\nsamples = 63\nvalue = 38349.5"] ;
287 -> 288 ;
289 [label="mse = 2589135.1\nsamples = 26\nvalue = 38951.0"] ;
288 -> 289 ;
290 [label="mse = 2051947.1\nsamples = 37\nvalue = 37870.6"] ;
288 -> 290 ;
291 [label="log_population <= -0.2\nmse = 2327990.9\nsamples = 9\nvalue = 39967.5"] ;
287 -> 291 ;
292 [label="mse = 1615071.8\nsamples = 8\nvalue = 40538.2"] ;
291 -> 292 ;
293 [label="mse = -0.0\nsamples = 1\nvalue = 38065.2"] ;
291 -> 293 ;
294 [label="median_home_value_sq <= 0.3\nmse = 4866450.1\nsamples = 391\nvalue = 42475.7"] ;
202 -> 294 ;
295 [label="median_income_sqrt <= 0.6\nmse = 4681971.0\nsamples = 340\nvalue = 42702.9"] ;
294 -> 295 ;
296 [label="median_income_sqrt <= 0.5\nmse = 4845379.4\nsamples = 276\nvalue = 42919.6"] ;
295 -> 296 ;
297 [label="log_population <= 0.1\nmse = 4695196.7\nsamples = 273\nvalue = 42861.6"] ;
296 -> 297 ;
298 [label="crim <= -0.5\nmse = 4174851.0\nsamples = 80\nvalue = 42238.8"] ;
297 -> 298 ;
299 [label="ptratio <= 0.2\nmse = 4309512.1\nsamples = 20\nvalue = 43535.4"] ;
298 -> 299 ;
300 [label="mse = 3199114.1\nsamples = 14\nvalue = 42728.1"] ;
299 -> 300 ;
301 [label="mse = 2110342.1\nsamples = 6\nvalue = 45329.4"] ;
299 -> 301 ;
302 [label="age <= 0.5\nmse = 3463914.0\nsamples = 60\nvalue = 41843.0"] ;
298 -> 302 ;
303 [label="mse = 2954447.6\nsamples = 50\nvalue = 41574.9"] ;
302 -> 303 ;
304 [label="mse = 3589316.8\nsamples = 10\nvalue = 43394.3"] ;
302 -> 304 ;
305 [label="median_home_value <= -0.2\nmse = 4675717.3\nsamples = 193\nvalue = 43143.5"] ;
297 -> 305 ;
306 [label="log_population <= 0.5\nmse = 5847889.5\nsamples = 25\nvalue = 44284.0"] ;
305 -> 306 ;
307 [label="mse = 5533406.7\nsamples = 20\nvalue = 44919.7"] ;
306 -> 307 ;
308 [label="mse = 1288086.6\nsamples = 5\nvalue = 42217.9"] ;
306 -> 308 ;
309 [label="ptratio <= -2.2\nmse = 4299279.3\nsamples = 168\nvalue = 42981.9"] ;
305 -> 309 ;
310 [label="mse = 0.0\nsamples = 1\nvalue = 40218.4"] ;
309 -> 310 ;
311 [label="mse = 4240518.5\nsamples = 167\nvalue = 43028.7"] ;
309 -> 311 ;
312 [label="crim <= -0.5\nmse = 2344864.1\nsamples = 3\nvalue = 46213.3"] ;
296 -> 312 ;
313 [label="mse = 0.0\nsamples = 1\nvalue = 47807.2"] ;
312 -> 313 ;
314 [label="tax <= -0.8\nmse = 768927.9\nsamples = 2\nvalue = 45017.8"] ;
312 -> 314 ;
315 [label="mse = 0.0\nsamples = 1\nvalue = 43499.0"] ;
314 -> 315 ;
316 [label="mse = -0.0\nsamples = 1\nvalue = 45524.1"] ;
314 -> 316 ;
317 [label="age <= -0.6\nmse = 2959025.3\nsamples = 64\nvalue = 41788.8"] ;
295 -> 317 ;
318 [label="crim <= -0.4\nmse = 2816354.3\nsamples = 35\nvalue = 42508.0"] ;
317 -> 318 ;
319 [label="median_income_sqrt <= 0.9\nmse = 1804349.8\nsamples = 21\nvalue = 41881.7"] ;
318 -> 319 ;
320 [label="crim <= -0.4\nmse = 1266359.4\nsamples = 20\nvalue = 42080.8"] ;
319 -> 320 ;
321 [label="mse = 1077298.6\nsamples = 17\nvalue = 42250.8"] ;
320 -> 321 ;
322 [label="mse = 244746.4\nsamples = 3\nvalue = 40494.5"] ;
320 -> 322 ;
323 [label="mse = 0.0\nsamples = 1\nvalue = 38794.9"] ;
319 -> 323 ;
324 [label="ptratio <= 0.1\nmse = 2709574.2\nsamples = 14\nvalue = 43595.7"] ;
318 -> 324 ;
325 [label="log_population <= 0.3\nmse = 980689.9\nsamples = 4\nvalue = 44961.0"] ;
324 -> 325 ;
326 [label="mse = 0.0\nsamples = 1\nvalue = 42600.7"] ;
325 -> 326 ;
327 [label="mse = 211248.3\nsamples = 3\nvalue = 45298.2"] ;
325 -> 327 ;
328 [label="age <= -0.6\nmse = 1625489.4\nsamples = 10\nvalue = 42602.8"] ;
324 -> 328 ;
329 [label="mse = 943833.2\nsamples = 9\nvalue = 42325.8"] ;
328 -> 329 ;
330 [label="mse = 0.0\nsamples = 1\nvalue = 45373.1"] ;
328 -> 330 ;
331 [label="median_income_sqrt <= 0.9\nmse = 1794051.4\nsamples = 29\nvalue = 40938.9"] ;
317 -> 331 ;
332 [label="ptratio <= 0.1\nmse = 1443755.4\nsamples = 22\nvalue = 40617.8"] ;
331 -> 332 ;
333 [label="median_income_sqrt <= 0.6\nmse = 798777.1\nsamples = 14\nvalue = 41179.3"] ;
332 -> 333 ;
334 [label="mse = 2308.8\nsamples = 2\nvalue = 39829.2"] ;
333 -> 334 ;
335 [label="mse = 537131.6\nsamples = 12\nvalue = 41436.5"] ;
333 -> 335 ;
336 [label="ptratio <= 0.3\nmse = 564199.7\nsamples = 8\nvalue = 39341.6"] ;
332 -> 336 ;
337 [label="mse = 460346.6\nsamples = 3\nvalue = 39885.8"] ;
336 -> 337 ;
338 [label="mse = 198144.9\nsamples = 5\nvalue = 38888.0"] ;
336 -> 338 ;
339 [label="rm <= -0.0\nmse = 818272.8\nsamples = 7\nvalue = 42383.9"] ;
331 -> 339 ;
340 [label="age <= -0.3\nmse = 185823.7\nsamples = 4\nvalue = 42875.4"] ;
339 -> 340 ;
341 [label="mse = 4743.1\nsamples = 2\nvalue = 42381.4"] ;
340 -> 341 ;
342 [label="mse = 35388.6\nsamples = 2\nvalue = 43204.8"] ;
340 -> 342 ;
343 [label="median_home_value_sq <= 0.2\nmse = 798606.2\nsamples = 3\nvalue = 41564.7"] ;
339 -> 343 ;
344 [label="mse = 64009.0\nsamples = 2\nvalue = 40949.9"] ;
343 -> 344 ;
345 [label="mse = -0.0\nsamples = 1\nvalue = 42794.3"] ;
343 -> 345 ;
346 [label="crim <= -0.5\nmse = 3401205.8\nsamples = 51\nvalue = 40937.9"] ;
294 -> 346 ;
347 [label="tax <= -1.1\nmse = 998244.9\nsamples = 10\nvalue = 39445.4"] ;
346 -> 347 ;
348 [label="indus <= -0.9\nmse = 1047581.2\nsamples = 3\nvalue = 40775.6"] ;
347 -> 348 ;
349 [label="median_home_value <= 0.7\nmse = 367702.8\nsamples = 2\nvalue = 41409.0"] ;
348 -> 349 ;
350 [label="mse = 0.0\nsamples = 1\nvalue = 40802.6"] ;
349 -> 350 ;
351 [label="mse = 0.0\nsamples = 1\nvalue = 42015.4"] ;
349 -> 351 ;
352 [label="mse = -0.0\nsamples = 1\nvalue = 39508.7"] ;
348 -> 352 ;
353 [label="age <= -0.6\nmse = 484353.1\nsamples = 7\nvalue = 39138.5"] ;
347 -> 353 ;
354 [label="ptratio <= -1.3\nmse = 230292.7\nsamples = 6\nvalue = 39367.9"] ;
353 -> 354 ;
355 [label="mse = 0.0\nsamples = 1\nvalue = 38660.4"] ;
354 -> 355 ;
356 [label="crim <= -0.5\nmse = 58520.6\nsamples = 5\nvalue = 39633.2"] ;
354 -> 356 ;
357 [label="mse = 9447.0\nsamples = 2\nvalue = 39466.9"] ;
356 -> 357 ;
358 [label="mse = 17271.9\nsamples = 3\nvalue = 39910.5"] ;
356 -> 358 ;
359 [label="mse = 0.0\nsamples = 1\nvalue = 37876.7"] ;
353 -> 359 ;
360 [label="median_home_value_sq <= 0.3\nmse = 3280110.1\nsamples = 41\nvalue = 41349.6"] ;
346 -> 360 ;
361 [label="age <= -0.5\nmse = 466910.8\nsamples = 5\nvalue = 39237.8"] ;
360 -> 361 ;
362 [label="median_income_sqrt <= 0.5\nmse = 25186.1\nsamples = 3\nvalue = 39684.2"] ;
361 -> 362 ;
363 [label="log_population <= 0.2\nmse = 6327.4\nsamples = 2\nvalue = 39766.7"] ;
362 -> 363 ;
364 [label="mse = 0.0\nsamples = 1\nvalue = 39879.2"] ;
363 -> 364 ;
365 [label="mse = -0.0\nsamples = 1\nvalue = 39710.5"] ;
363 -> 365 ;
366 [label="mse = 0.0\nsamples = 1\nvalue = 39436.6"] ;
362 -> 366 ;
367 [label="median_home_value <= 0.5\nmse = 154771.4\nsamples = 2\nvalue = 38345.0"] ;
361 -> 367 ;
368 [label="mse = 0.0\nsamples = 1\nvalue = 37951.6"] ;
367 -> 368 ;
369 [label="mse = 0.0\nsamples = 1\nvalue = 38738.4"] ;
367 -> 369 ;
370 [label="median_income_sqrt <= 0.8\nmse = 3030734.8\nsamples = 36\nvalue = 41593.3"] ;
360 -> 370 ;
371 [label="indus <= 0.1\nmse = 3005880.8\nsamples = 25\nvalue = 42045.6"] ;
370 -> 371 ;
372 [label="log_population <= 0.2\nmse = 2373186.4\nsamples = 21\nvalue = 42450.3"] ;
371 -> 372 ;
373 [label="mse = 1676038.5\nsamples = 6\nvalue = 41163.8"] ;
372 -> 373 ;
374 [label="mse = 1805982.2\nsamples = 15\nvalue = 42918.2"] ;
372 -> 374 ;
375 [label="rm <= 0.3\nmse = 1255613.4\nsamples = 4\nvalue = 40022.1"] ;
371 -> 375 ;
376 [label="mse = 432115.6\nsamples = 2\nvalue = 41513.0"] ;
375 -> 376 ;
377 [label="mse = 129.8\nsamples = 2\nvalue = 39276.6"] ;
375 -> 377 ;
378 [label="crim <= -0.5\nmse = 1590466.5\nsamples = 11\nvalue = 40575.5"] ;
370 -> 378 ;
379 [label="log_population <= 0.3\nmse = 567458.0\nsamples = 6\nvalue = 41241.5"] ;
378 -> 379 ;
380 [label="mse = 27103.3\nsamples = 3\nvalue = 40704.2"] ;
379 -> 380 ;
381 [label="mse = 295513.1\nsamples = 3\nvalue = 42047.4"] ;
379 -> 381 ;
382 [label="median_income_sqrt <= 1.0\nmse = 1324413.7\nsamples = 5\nvalue = 39465.6"] ;
378 -> 382 ;
383 [label="mse = 262196.5\nsamples = 3\nvalue = 38714.6"] ;
382 -> 383 ;
384 [label="mse = 64887.4\nsamples = 2\nvalue = 40967.6"] ;
382 -> 384 ;
385 [label="log_population <= 2.1\nmse = 8268454.2\nsamples = 852\nvalue = 45346.7"] ;
1 -> 385 ;
386 [label="median_home_value_sq <= -0.2\nmse = 6662481.7\nsamples = 744\nvalue = 44888.6"] ;
385 -> 386 ;
387 [label="median_income_sqrt <= -0.2\nmse = 5689090.8\nsamples = 457\nvalue = 45739.2"] ;
386 -> 387 ;
388 [label="log_population <= 1.0\nmse = 5357517.3\nsamples = 342\nvalue = 46111.7"] ;
387 -> 388 ;
389 [label="crim <= 1.9\nmse = 4441377.8\nsamples = 200\nvalue = 45448.0"] ;
388 -> 389 ;
390 [label="age <= 1.2\nmse = 4168167.1\nsamples = 196\nvalue = 45367.1"] ;
389 -> 390 ;
391 [label="age <= 1.2\nmse = 3998440.2\nsamples = 160\nvalue = 45139.8"] ;
390 -> 391 ;
392 [label="log_population <= 0.8\nmse = 3794829.6\nsamples = 159\nvalue = 45194.4"] ;
391 -> 392 ;
393 [label="mse = 3841287.1\nsamples = 94\nvalue = 44902.9"] ;
392 -> 393 ;
394 [label="mse = 3396764.1\nsamples = 65\nvalue = 45639.0"] ;
392 -> 394 ;
395 [label="mse = -0.0\nsamples = 1\nvalue = 40588.2"] ;
391 -> 395 ;
396 [label="crim <= -0.3\nmse = 3554548.3\nsamples = 36\nvalue = 46452.1"] ;
390 -> 396 ;
397 [label="median_income_sqrt <= -0.8\nmse = 2959738.9\nsamples = 4\nvalue = 48924.4"] ;
396 -> 397 ;
398 [label="mse = 792286.9\nsamples = 2\nvalue = 47174.8"] ;
397 -> 398 ;
399 [label="mse = 1003519.4\nsamples = 2\nvalue = 50090.8"] ;
397 -> 399 ;
400 [label="crim <= 0.4\nmse = 2913459.8\nsamples = 32\nvalue = 46194.5"] ;
396 -> 400 ;
401 [label="mse = 2482618.3\nsamples = 11\nvalue = 45065.6"] ;
400 -> 401 ;
402 [label="mse = 2266667.6\nsamples = 21\nvalue = 46707.7"] ;
400 -> 402 ;
403 [label="median_home_value_sq <= -0.9\nmse = 1011216.4\nsamples = 4\nvalue = 49574.7"] ;
389 -> 403 ;
404 [label="age <= 1.1\nmse = 127127.9\nsamples = 3\nvalue = 50255.3"] ;
403 -> 404 ;
405 [label="median_home_value_sq <= -1.0\nmse = 39081.3\nsamples = 2\nvalue = 50583.4"] ;
404 -> 405 ;
406 [label="mse = 0.0\nsamples = 1\nvalue = 50781.0"] ;
405 -> 406 ;
407 [label="mse = -0.0\nsamples = 1\nvalue = 50385.7"] ;
405 -> 407 ;
408 [label="mse = 0.0\nsamples = 1\nvalue = 49927.3"] ;
404 -> 408 ;
409 [label="mse = -0.0\nsamples = 1\nvalue = 48213.5"] ;
403 -> 409 ;
410 [label="median_home_value_sq <= -0.3\nmse = 5145988.2\nsamples = 142\nvalue = 47053.0"] ;
388 -> 410 ;
411 [label="rm <= 0.8\nmse = 5040100.9\nsamples = 126\nvalue = 47213.2"] ;
410 -> 411 ;
412 [label="median_income_sqrt <= -0.4\nmse = 5008549.3\nsamples = 117\nvalue = 47076.3"] ;
411 -> 412 ;
413 [label="ptratio <= 0.6\nmse = 4767485.2\nsamples = 99\nvalue = 47287.1"] ;
412 -> 413 ;
414 [label="mse = 4991500.9\nsamples = 30\nvalue = 48045.7"] ;
413 -> 414 ;
415 [label="mse = 4267361.4\nsamples = 69\nvalue = 46932.1"] ;
413 -> 415 ;
416 [label="rm <= 0.3\nmse = 4446738.6\nsamples = 18\nvalue = 45727.1"] ;
412 -> 416 ;
417 [label="mse = 2888188.4\nsamples = 13\nvalue = 46523.7"] ;
416 -> 417 ;
418 [label="mse = 1009223.0\nsamples = 5\nvalue = 43204.5"] ;
416 -> 418 ;
419 [label="median_home_value <= -0.9\nmse = 2344902.3\nsamples = 9\nvalue = 48902.3"] ;
411 -> 419 ;
420 [label="indus <= 1.2\nmse = 213724.2\nsamples = 3\nvalue = 47335.2"] ;
419 -> 420 ;
421 [label="mse = 0.0\nsamples = 1\nvalue = 48132.5"] ;
420 -> 421 ;
422 [label="mse = 2437.9\nsamples = 2\nvalue = 47069.5"] ;
420 -> 422 ;
423 [label="age <= 1.5\nmse = 1902154.0\nsamples = 6\nvalue = 49472.1"] ;
419 -> 423 ;
424 [label="mse = 699273.6\nsamples = 5\nvalue = 49116.3"] ;
423 -> 424 ;
425 [label="mse = 0.0\nsamples = 1\nvalue = 53030.9"] ;
423 -> 425 ;
426 [label="log_population <= 1.5\nmse = 3381616.3\nsamples = 16\nvalue = 45451.0"] ;
410 -> 426 ;
427 [label="indus <= -0.7\nmse = 1644403.1\nsamples = 14\nvalue = 44911.2"] ;
426 -> 427 ;
428 [label="tax <= -0.6\nmse = 491178.3\nsamples = 5\nvalue = 43847.3"] ;
427 -> 428 ;
429 [label="mse = 95691.2\nsamples = 4\nvalue = 43560.5"] ;
428 -> 429 ;
430 [label="mse = 0.0\nsamples = 1\nvalue = 45281.6"] ;
428 -> 430 ;
431 [label="median_home_value <= -0.1\nmse = 1319423.3\nsamples = 9\nvalue = 45491.4"] ;
427 -> 431 ;
432 [label="mse = 650621.4\nsamples = 6\nvalue = 46024.8"] ;
431 -> 432 ;
433 [label="mse = 320885.5\nsamples = 3\nvalue = 44069.0"] ;
431 -> 433 ;
434 [label="median_home_value_sq <= -0.2\nmse = 2218572.8\nsamples = 2\nvalue = 48509.7"] ;
426 -> 434 ;
435 [label="mse = 0.0\nsamples = 1\nvalue = 47456.5"] ;
434 -> 435 ;
436 [label="mse = -0.0\nsamples = 1\nvalue = 50616.2"] ;
434 -> 436 ;
437 [label="zn <= -0.6\nmse = 5096205.4\nsamples = 115\nvalue = 44668.1"] ;
387 -> 437 ;
438 [label="age <= 1.0\nmse = 4003123.4\nsamples = 48\nvalue = 43776.4"] ;
437 -> 438 ;
439 [label="ptratio <= 1.3\nmse = 3106982.1\nsamples = 43\nvalue = 43506.2"] ;
438 -> 439 ;
440 [label="ptratio <= -0.2\nmse = 2988982.9\nsamples = 39\nvalue = 43721.9"] ;
439 -> 440 ;
441 [label="ptratio <= -1.2\nmse = 3019935.9\nsamples = 3\nvalue = 41343.8"] ;
440 -> 441 ;
442 [label="mse = 0.0\nsamples = 1\nvalue = 44748.9"] ;
441 -> 442 ;
443 [label="mse = 151625.4\nsamples = 2\nvalue = 40492.6"] ;
441 -> 443 ;
444 [label="age <= 0.7\nmse = 2475856.6\nsamples = 36\nvalue = 43920.1"] ;
440 -> 444 ;
445 [label="mse = 2266549.6\nsamples = 33\nvalue = 44149.8"] ;
444 -> 445 ;
446 [label="mse = 637094.3\nsamples = 3\nvalue = 42181.1"] ;
444 -> 446 ;
447 [label="crim <= 0.5\nmse = 617369.7\nsamples = 4\nvalue = 41754.0"] ;
439 -> 447 ;
448 [label="log_population <= 1.2\nmse = 87380.2\nsamples = 3\nvalue = 42182.9"] ;
447 -> 448 ;
449 [label="mse = 1870.8\nsamples = 2\nvalue = 42313.9"] ;
448 -> 449 ;
450 [label="mse = 0.0\nsamples = 1\nvalue = 41527.8"] ;
448 -> 450 ;
451 [label="mse = -0.0\nsamples = 1\nvalue = 40467.3"] ;
447 -> 451 ;
452 [label="median_income_sqrt <= -0.1\nmse = 4647024.2\nsamples = 5\nvalue = 46594.3"] ;
438 -> 452 ;
453 [label="zn <= -0.7\nmse = 311012.6\nsamples = 2\nvalue = 43702.6"] ;
452 -> 453 ;
454 [label="mse = 0.0\nsamples = 1\nvalue = 43144.9"] ;
453 -> 454 ;
455 [label="mse = 0.0\nsamples = 1\nvalue = 44260.2"] ;
453 -> 455 ;
456 [label="indus <= 0.9\nmse = 1698663.1\nsamples = 3\nvalue = 47751.0"] ;
452 -> 456 ;
457 [label="mse = 0.0\nsamples = 1\nvalue = 49346.0"] ;
456 -> 457 ;
458 [label="indus <= 1.0\nmse = 4311.5\nsamples = 2\nvalue = 46687.6"] ;
456 -> 458 ;
459 [label="mse = 0.0\nsamples = 1\nvalue = 46641.2"] ;
458 -> 459 ;
460 [label="mse = -0.0\nsamples = 1\nvalue = 46780.5"] ;
458 -> 460 ;
461 [label="median_home_value_sq <= -0.6\nmse = 4861832.7\nsamples = 67\nvalue = 45347.4"] ;
437 -> 461 ;
462 [label="mse = 0.0\nsamples = 1\nvalue = 50243.9"] ;
461 -> 462 ;
463 [label="tax <= -1.0\nmse = 4278916.9\nsamples = 66\nvalue = 45203.4"] ;
461 -> 463 ;
464 [label="rm <= 0.1\nmse = 1935557.4\nsamples = 3\nvalue = 47977.7"] ;
463 -> 464 ;
465 [label="median_home_value <= -0.1\nmse = 485621.0\nsamples = 2\nvalue = 48774.8"] ;
464 -> 465 ;
466 [label="mse = 0.0\nsamples = 1\nvalue = 49343.8"] ;
465 -> 466 ;
467 [label="mse = 0.0\nsamples = 1\nvalue = 47921.4"] ;
465 -> 467 ;
468 [label="mse = 0.0\nsamples = 1\nvalue = 45984.8"] ;
464 -> 468 ;
469 [label="median_income_sqrt <= -0.2\nmse = 3842677.7\nsamples = 63\nvalue = 44999.0"] ;
463 -> 469 ;
470 [label="mse = 0.0\nsamples = 1\nvalue = 41310.7"] ;
469 -> 470 ;
471 [label="ptratio <= 0.8\nmse = 3626475.7\nsamples = 62\nvalue = 45078.3"] ;
469 -> 471 ;
472 [label="mse = 3670539.6\nsamples = 53\nvalue = 45278.3"] ;
471 -> 472 ;
473 [label="mse = 1236876.6\nsamples = 9\nvalue = 43728.4"] ;
471 -> 473 ;
474 [label="log_population <= 1.1\nmse = 5390670.0\nsamples = 287\nvalue = 43604.5"] ;
386 -> 474 ;
475 [label="rm <= -1.5\nmse = 4024439.4\nsamples = 154\nvalue = 42980.1"] ;
474 -> 475 ;
476 [label="ptratio <= -0.2\nmse = 2567059.9\nsamples = 3\nvalue = 38821.1"] ;
475 -> 476 ;
477 [label="mse = 0.0\nsamples = 1\nvalue = 42154.4"] ;
476 -> 477 ;
478 [label="crim <= -0.2\nmse = 413834.5\nsamples = 2\nvalue = 38154.4"] ;
476 -> 478 ;
479 [label="mse = 0.0\nsamples = 1\nvalue = 38942.3"] ;
478 -> 479 ;
480 [label="mse = -0.0\nsamples = 1\nvalue = 37629.1"] ;
478 -> 480 ;
481 [label="crim <= -0.5\nmse = 3640606.8\nsamples = 151\nvalue = 43078.3"] ;
475 -> 481 ;
482 [label="zn <= 2.1\nmse = 3014698.7\nsamples = 62\nvalue = 42414.8"] ;
481 -> 482 ;
483 [label="rm <= 0.9\nmse = 2727459.7\nsamples = 52\nvalue = 42185.3"] ;
482 -> 483 ;
484 [label="rm <= -0.1\nmse = 2890700.2\nsamples = 44\nvalue = 41891.6"] ;
483 -> 484 ;
485 [label="mse = 2806517.6\nsamples = 11\nvalue = 43118.9"] ;
484 -> 485 ;
486 [label="mse = 2476859.4\nsamples = 33\nvalue = 41605.3"] ;
484 -> 486 ;
487 [label="crim <= -0.5\nmse = 623291.9\nsamples = 8\nvalue = 43272.1"] ;
483 -> 487 ;
488 [label="mse = 353423.4\nsamples = 6\nvalue = 42701.2"] ;
487 -> 488 ;
489 [label="mse = 68084.1\nsamples = 2\nvalue = 43969.8"] ;
487 -> 489 ;
490 [label="median_home_value <= 0.2\nmse = 2417205.0\nsamples = 10\nvalue = 43852.7"] ;
482 -> 490 ;
491 [label="crim <= -0.5\nmse = 525979.3\nsamples = 5\nvalue = 44608.5"] ;
490 -> 491 ;
492 [label="mse = 25285.8\nsamples = 2\nvalue = 43329.2"] ;
491 -> 492 ;
493 [label="mse = 139718.9\nsamples = 3\nvalue = 44928.4"] ;
491 -> 493 ;
494 [label="log_population <= 0.6\nmse = 2772064.0\nsamples = 5\nvalue = 42341.1"] ;
490 -> 494 ;
495 [label="mse = 690627.5\nsamples = 2\nvalue = 40997.1"] ;
494 -> 495 ;
496 [label="mse = 2152875.3\nsamples = 3\nvalue = 43237.0"] ;
494 -> 496 ;
497 [label="median_income_sqrt <= 0.3\nmse = 3531317.6\nsamples = 89\nvalue = 43577.2"] ;
481 -> 497 ;
498 [label="tax <= -0.8\nmse = 3066299.6\nsamples = 61\nvalue = 43982.7"] ;
497 -> 498 ;
499 [label="age <= -0.5\nmse = 3251553.2\nsamples = 7\nvalue = 45462.8"] ;
498 -> 499 ;
500 [label="mse = 579248.4\nsamples = 4\nvalue = 43848.8"] ;
499 -> 500 ;
501 [label="mse = 713879.8\nsamples = 3\nvalue = 47076.8"] ;
499 -> 501 ;
502 [label="log_population <= 0.6\nmse = 2632847.6\nsamples = 54\nvalue = 43747.2"] ;
498 -> 502 ;
503 [label="mse = 4302820.9\nsamples = 11\nvalue = 42523.1"] ;
502 -> 503 ;
504 [label="mse = 1979816.7\nsamples = 43\nvalue = 43978.8"] ;
502 -> 504 ;
505 [label="age <= 0.5\nmse = 3319143.3\nsamples = 28\nvalue = 42615.3"] ;
497 -> 505 ;
506 [label="indus <= 0.8\nmse = 2529445.5\nsamples = 25\nvalue = 43144.0"] ;
505 -> 506 ;
507 [label="mse = 1760061.7\nsamples = 18\nvalue = 42560.1"] ;
506 -> 507 ;
508 [label="mse = 2278386.2\nsamples = 7\nvalue = 44132.0"] ;
506 -> 508 ;
509 [label="tax <= 0.2\nmse = 200880.0\nsamples = 3\nvalue = 40302.2"] ;
505 -> 509 ;
510 [label="mse = 0.0\nsamples = 1\nvalue = 39291.8"] ;
509 -> 510 ;
511 [label="mse = 62908.6\nsamples = 2\nvalue = 40446.6"] ;
509 -> 511 ;
512 [label="median_home_value_sq <= 0.1\nmse = 6001222.6\nsamples = 133\nvalue = 44359.6"] ;
474 -> 512 ;
513 [label="indus <= -0.9\nmse = 4612887.0\nsamples = 67\nvalue = 45423.6"] ;
512 -> 513 ;
514 [label="median_income_sqrt <= -0.1\nmse = 2545336.2\nsamples = 25\nvalue = 44523.7"] ;
513 -> 514 ;
515 [label="median_home_value_sq <= -0.1\nmse = 2484950.8\nsamples = 7\nvalue = 42820.6"] ;
514 -> 515 ;
516 [label="log_population <= 1.5\nmse = 72022.5\nsamples = 2\nvalue = 45433.6"] ;
515 -> 516 ;
517 [label="mse = 0.0\nsamples = 1\nvalue = 45701.9"] ;
516 -> 517 ;
518 [label="mse = -0.0\nsamples = 1\nvalue = 45165.2"] ;
516 -> 518 ;
519 [label="tax <= -0.8\nmse = 1166752.9\nsamples = 5\nvalue = 42239.9"] ;
515 -> 519 ;
520 [label="mse = 205952.6\nsamples = 2\nvalue = 40565.5"] ;
519 -> 520 ;
521 [label="mse = 411321.3\nsamples = 3\nvalue = 42718.3"] ;
519 -> 521 ;
522 [label="rm <= -0.0\nmse = 1113937.5\nsamples = 18\nvalue = 45148.2"] ;
514 -> 522 ;
523 [label="median_income_sqrt <= -0.0\nmse = 982075.6\nsamples = 7\nvalue = 44251.1"] ;
522 -> 523 ;
524 [label="mse = 0.0\nsamples = 1\nvalue = 46014.5"] ;
523 -> 524 ;
525 [label="mse = 432133.1\nsamples = 6\nvalue = 43898.4"] ;
523 -> 525 ;
526 [label="zn <= 1.5\nmse = 307557.4\nsamples = 11\nvalue = 45746.3"] ;
522 -> 526 ;
527 [label="mse = 120724.7\nsamples = 10\nvalue = 45853.0"] ;
526 -> 527 ;
528 [label="mse = 0.0\nsamples = 1\nvalue = 43932.4"] ;
526 -> 528 ;
529 [label="indus <= 0.9\nmse = 5076811.0\nsamples = 42\nvalue = 45966.2"] ;
513 -> 529 ;
530 [label="crim <= -0.4\nmse = 5324195.5\nsamples = 36\nvalue = 45677.1"] ;
529 -> 530 ;
531 [label="ptratio <= 0.4\nmse = 3342350.5\nsamples = 22\nvalue = 46376.8"] ;
530 -> 531 ;
532 [label="mse = 2085009.8\nsamples = 14\nvalue = 45425.1"] ;
531 -> 532 ;
533 [label="mse = 2502028.9\nsamples = 8\nvalue = 47496.6"] ;
531 -> 533 ;
534 [label="indus <= -0.5\nmse = 6409286.0\nsamples = 14\nvalue = 44382.7"] ;
530 -> 534 ;
535 [label="mse = 5783188.4\nsamples = 4\nvalue = 41996.5"] ;
534 -> 535 ;
536 [label="mse = 3191532.7\nsamples = 10\nvalue = 45405.3"] ;
534 -> 536 ;
537 [label="rm <= -0.3\nmse = 1118037.9\nsamples = 6\nvalue = 47464.2"] ;
529 -> 537 ;
538 [label="mse = 0.0\nsamples = 1\nvalue = 44353.5"] ;
537 -> 538 ;
539 [label="tax <= 0.8\nmse = 165487.7\nsamples = 5\nvalue = 47775.2"] ;
537 -> 539 ;
540 [label="mse = 72900.7\nsamples = 4\nvalue = 47669.9"] ;
539 -> 540 ;
541 [label="mse = 0.0\nsamples = 1\nvalue = 48723.3"] ;
539 -> 541 ;
542 [label="log_population <= 2.0\nmse = 5067505.2\nsamples = 66\nvalue = 43265.4"] ;
512 -> 542 ;
543 [label="median_income_sqrt <= 1.2\nmse = 4527068.0\nsamples = 65\nvalue = 43405.0"] ;
542 -> 543 ;
544 [label="zn <= 1.2\nmse = 3906129.6\nsamples = 58\nvalue = 43674.8"] ;
543 -> 544 ;
545 [label="log_population <= 2.0\nmse = 3447981.7\nsamples = 53\nvalue = 43493.4"] ;
544 -> 545 ;
546 [label="mse = 3144215.6\nsamples = 52\nvalue = 43398.0"] ;
545 -> 546 ;
547 [label="mse = -0.0\nsamples = 1\nvalue = 47452.8"] ;
545 -> 547 ;
548 [label="rm <= 0.3\nmse = 4222716.2\nsamples = 5\nvalue = 45876.4"] ;
544 -> 548 ;
549 [label="mse = 2257752.7\nsamples = 3\nvalue = 43997.5"] ;
548 -> 549 ;
550 [label="mse = 1062690.9\nsamples = 2\nvalue = 47285.7"] ;
548 -> 550 ;
551 [label="indus <= -1.1\nmse = 4021283.7\nsamples = 7\nvalue = 41148.8"] ;
543 -> 551 ;
552 [label="zn <= 1.0\nmse = 2351104.9\nsamples = 6\nvalue = 42079.8"] ;
551 -> 552 ;
553 [label="mse = 369627.5\nsamples = 4\nvalue = 43550.2"] ;
552 -> 553 ;
554 [label="mse = 8628.5\nsamples = 2\nvalue = 40609.4"] ;
552 -> 554 ;
555 [label="mse = 0.0\nsamples = 1\nvalue = 38666.1"] ;
551 -> 555 ;
556 [label="mse = 0.0\nsamples = 1\nvalue = 38474.4"] ;
542 -> 556 ;
557 [label="median_home_value_sq <= -0.2\nmse = 7981682.7\nsamples = 108\nvalue = 48485.3"] ;
385 -> 557 ;
558 [label="median_income_sqrt <= 0.5\nmse = 7630906.8\nsamples = 95\nvalue = 48876.8"] ;
557 -> 558 ;
559 [label="median_home_value <= -0.2\nmse = 7389020.7\nsamples = 88\nvalue = 49045.1"] ;
558 -> 559 ;
560 [label="median_income_sqrt <= 0.1\nmse = 7064663.4\nsamples = 53\nvalue = 49494.7"] ;
559 -> 560 ;
561 [label="rm <= 0.5\nmse = 5776811.4\nsamples = 29\nvalue = 48835.6"] ;
560 -> 561 ;
562 [label="ptratio <= -0.5\nmse = 5615674.9\nsamples = 23\nvalue = 49461.5"] ;
561 -> 562 ;
563 [label="rm <= -0.7\nmse = 2584926.6\nsamples = 6\nvalue = 48113.5"] ;
562 -> 563 ;
564 [label="mse = 0.0\nsamples = 1\nvalue = 43758.4"] ;
563 -> 564 ;
565 [label="mse = 530507.7\nsamples = 5\nvalue = 48597.4"] ;
563 -> 565 ;
566 [label="zn <= 0.3\nmse = 5817286.8\nsamples = 17\nvalue = 49943.0"] ;
562 -> 566 ;
567 [label="mse = 3918756.2\nsamples = 13\nvalue = 49282.5"] ;
566 -> 567 ;
568 [label="mse = 6278484.1\nsamples = 4\nvalue = 51924.4"] ;
566 -> 568 ;
569 [label="indus <= 1.1\nmse = 1755085.8\nsamples = 6\nvalue = 47006.0"] ;
561 -> 569 ;
570 [label="tax <= -0.6\nmse = 139391.5\nsamples = 5\nvalue = 46302.9"] ;
569 -> 570 ;
571 [label="mse = 0.0\nsamples = 1\nvalue = 47188.0"] ;
570 -> 571 ;
572 [label="mse = 58149.1\nsamples = 4\nvalue = 46204.5"] ;
570 -> 572 ;
573 [label="mse = -0.0\nsamples = 1\nvalue = 49349.7"] ;
569 -> 573 ;
574 [label="median_home_value <= -0.4\nmse = 7401733.4\nsamples = 24\nvalue = 50428.5"] ;
560 -> 574 ;
575 [label="mse = 0.0\nsamples = 1\nvalue = 58175.7"] ;
574 -> 575 ;
576 [label="age <= 0.1\nmse = 4098945.2\nsamples = 23\nvalue = 49972.8"] ;
574 -> 576 ;
577 [label="indus <= -0.4\nmse = 1901029.9\nsamples = 9\nvalue = 51490.1"] ;
576 -> 577 ;
578 [label="mse = 1506288.4\nsamples = 5\nvalue = 50582.4"] ;
577 -> 578 ;
579 [label="mse = 647948.5\nsamples = 4\nvalue = 52397.8"] ;
577 -> 579 ;
580 [label="tax <= -0.5\nmse = 2897691.8\nsamples = 14\nvalue = 48910.7"] ;
576 -> 580 ;
581 [label="mse = 2337459.8\nsamples = 13\nvalue = 49311.6"] ;
580 -> 581 ;
582 [label="mse = -0.0\nsamples = 1\nvalue = 46638.8"] ;
580 -> 582 ;
583 [label="median_home_value <= -0.2\nmse = 7027436.1\nsamples = 35\nvalue = 48292.8"] ;
559 -> 583 ;
584 [label="crim <= -0.3\nmse = 2130662.1\nsamples = 3\nvalue = 44514.2"] ;
583 -> 584 ;
585 [label="median_home_value_sq <= -0.3\nmse = 116.2\nsamples = 2\nvalue = 45546.3"] ;
584 -> 585 ;
586 [label="mse = 0.0\nsamples = 1\nvalue = 45557.1"] ;
585 -> 586 ;
587 [label="mse = 0.0\nsamples = 1\nvalue = 45535.6"] ;
585 -> 587 ;
588 [label="mse = 0.0\nsamples = 1\nvalue = 42450.0"] ;
584 -> 588 ;
589 [label="median_income_sqrt <= 0.4\nmse = 6399584.3\nsamples = 32\nvalue = 48524.1"] ;
583 -> 589 ;
590 [label="ptratio <= 0.6\nmse = 5522647.7\nsamples = 24\nvalue = 49118.6"] ;
589 -> 590 ;
591 [label="crim <= -0.4\nmse = 3967147.8\nsamples = 17\nvalue = 48441.0"] ;
590 -> 591 ;
592 [label="mse = 2490149.0\nsamples = 4\nvalue = 50575.1"] ;
591 -> 592 ;
593 [label="mse = 3032482.6\nsamples = 13\nvalue = 47955.9"] ;
591 -> 593 ;
594 [label="median_home_value <= -0.1\nmse = 5134615.2\nsamples = 7\nvalue = 50948.4"] ;
590 -> 594 ;
595 [label="mse = 826205.5\nsamples = 5\nvalue = 49601.9"] ;
594 -> 595 ;
596 [label="mse = 1087370.0\nsamples = 2\nvalue = 54090.0"] ;
594 -> 596 ;
597 [label="age <= 0.5\nmse = 4653297.0\nsamples = 8\nvalue = 46691.0"] ;
589 -> 597 ;
598 [label="median_home_value_sq <= -0.3\nmse = 470279.4\nsamples = 3\nvalue = 49157.6"] ;
597 -> 598 ;
599 [label="mse = 0.0\nsamples = 1\nvalue = 50338.4"] ;
598 -> 599 ;
600 [label="mse = 7397.3\nsamples = 2\nvalue = 48764.0"] ;
598 -> 600 ;
601 [label="tax <= -0.3\nmse = 2181731.5\nsamples = 5\nvalue = 45457.7"] ;
597 -> 601 ;
602 [label="mse = 21751.8\nsamples = 3\nvalue = 44401.1"] ;
601 -> 602 ;
603 [label="mse = 820045.0\nsamples = 2\nvalue = 47218.7"] ;
601 -> 603 ;
604 [label="indus <= -0.5\nmse = 4176916.2\nsamples = 7\nvalue = 46278.3"] ;
558 -> 604 ;
605 [label="mse = 0.0\nsamples = 1\nvalue = 49455.4"] ;
604 -> 605 ;
606 [label="crim <= -0.4\nmse = 1662134.2\nsamples = 6\nvalue = 45370.5"] ;
604 -> 606 ;
607 [label="mse = 0.0\nsamples = 1\nvalue = 42373.0"] ;
606 -> 607 ;
608 [label="tax <= -0.4\nmse = 192121.9\nsamples = 5\nvalue = 45870.1"] ;
606 -> 608 ;
609 [label="median_home_value_sq <= -0.3\nmse = 35215.0\nsamples = 2\nvalue = 45488.5"] ;
608 -> 609 ;
610 [label="mse = 0.0\nsamples = 1\nvalue = 45621.2"] ;
609 -> 610 ;
611 [label="mse = -0.0\nsamples = 1\nvalue = 45223.2"] ;
609 -> 611 ;
612 [label="indus <= -0.2\nmse = 57903.6\nsamples = 3\nvalue = 46251.6"] ;
608 -> 612 ;
613 [label="log_population <= 3.4\nmse = 16967.7\nsamples = 2\nvalue = 46099.0"] ;
612 -> 613 ;
614 [label="mse = 0.0\nsamples = 1\nvalue = 46229.2"] ;
613 -> 614 ;
615 [label="mse = 0.0\nsamples = 1\nvalue = 45968.7"] ;
613 -> 615 ;
616 [label="mse = 0.0\nsamples = 1\nvalue = 46556.9"] ;
612 -> 616 ;
617 [label="median_income_sqrt <= 0.2\nmse = 4138193.9\nsamples = 13\nvalue = 46256.5"] ;
557 -> 617 ;
618 [label="ptratio <= -1.0\nmse = 1403252.8\nsamples = 4\nvalue = 43947.5"] ;
617 -> 618 ;
619 [label="mse = -0.0\nsamples = 1\nvalue = 42631.6"] ;
618 -> 619 ;
620 [label="tax <= -1.0\nmse = 182804.2\nsamples = 3\nvalue = 44934.5"] ;
618 -> 620 ;
621 [label="mse = 0.0\nsamples = 1\nvalue = 44224.5"] ;
620 -> 621 ;
622 [label="rm <= 1.0\nmse = 19686.6\nsamples = 2\nvalue = 45171.2"] ;
620 -> 622 ;
623 [label="mse = 0.0\nsamples = 1\nvalue = 45369.6"] ;
622 -> 623 ;
624 [label="mse = 0.0\nsamples = 1\nvalue = 45072.0"] ;
622 -> 624 ;
625 [label="rm <= 0.7\nmse = 2458044.6\nsamples = 9\nvalue = 47107.2"] ;
617 -> 625 ;
626 [label="log_population <= 3.5\nmse = 561170.0\nsamples = 5\nvalue = 46367.8"] ;
625 -> 626 ;
627 [label="ptratio <= 0.1\nmse = 157003.9\nsamples = 3\nvalue = 45480.2"] ;
626 -> 627 ;
628 [label="mse = 0.0\nsamples = 1\nvalue = 45952.8"] ;
627 -> 628 ;
629 [label="ptratio <= 0.3\nmse = 13545.5\nsamples = 2\nvalue = 45165.2"] ;
627 -> 629 ;
630 [label="mse = 0.0\nsamples = 1\nvalue = 45082.9"] ;
629 -> 630 ;
631 [label="mse = 0.0\nsamples = 1\nvalue = 45329.8"] ;
629 -> 631 ;
632 [label="indus <= -0.8\nmse = 13711.2\nsamples = 2\nvalue = 46922.5"] ;
626 -> 632 ;
633 [label="mse = 0.0\nsamples = 1\nvalue = 47039.6"] ;
632 -> 633 ;
634 [label="mse = -0.0\nsamples = 1\nvalue = 46805.4"] ;
632 -> 634 ;
635 [label="median_income_sqrt <= 0.6\nmse = 2816964.5\nsamples = 4\nvalue = 48709.2"] ;
625 -> 635 ;
636 [label="ptratio <= 0.2\nmse = 869849.8\nsamples = 3\nvalue = 49356.0"] ;
635 -> 636 ;
637 [label="mse = 0.0\nsamples = 1\nvalue = 51219.4"] ;
636 -> 637 ;
638 [label="median_home_value_sq <= -0.1\nmse = 2259.1\nsamples = 2\nvalue = 48890.2"] ;
636 -> 638 ;
639 [label="mse = 0.0\nsamples = 1\nvalue = 48937.7"] ;
638 -> 639 ;
640 [label="mse = 0.0\nsamples = 1\nvalue = 48842.6"] ;
638 -> 640 ;
641 [label="mse = -0.0\nsamples = 1\nvalue = 45474.9"] ;
635 -> 641 ;
642 [label="median_home_value <= 2.0\nmse = 12789052.4\nsamples = 551\nvalue = 35694.9"] ;
0 -> 642 [labeldistance=2.5, labelangle=-45, headlabel="False"] ;
643 [label="log_population <= 0.6\nmse = 6199787.3\nsamples = 346\nvalue = 37702.6"] ;
642 -> 643 ;
644 [label="median_home_value_sq <= 1.1\nmse = 4686448.3\nsamples = 298\nvalue = 37232.0"] ;
643 -> 644 ;
645 [label="log_population <= -0.6\nmse = 4411962.0\nsamples = 159\nvalue = 38079.7"] ;
644 -> 645 ;
646 [label="ptratio <= -0.9\nmse = 2967405.5\nsamples = 54\nvalue = 36810.3"] ;
645 -> 646 ;
647 [label="tax <= -1.3\nmse = 2219834.2\nsamples = 21\nvalue = 35874.6"] ;
646 -> 647 ;
648 [label="mse = -0.0\nsamples = 1\nvalue = 38487.8"] ;
647 -> 648 ;
649 [label="median_home_value <= 0.9\nmse = 1709816.8\nsamples = 20\nvalue = 35621.7"] ;
647 -> 649 ;
650 [label="mse = 0.0\nsamples = 1\nvalue = 31293.0"] ;
649 -> 650 ;
651 [label="log_population <= -0.7\nmse = 1121402.0\nsamples = 19\nvalue = 35766.0"] ;
649 -> 651 ;
652 [label="tax <= -1.1\nmse = 922379.4\nsamples = 18\nvalue = 35586.1"] ;
651 -> 652 ;
653 [label="mse = 734143.3\nsamples = 6\nvalue = 36470.4"] ;
652 -> 653 ;
654 [label="mse = 618707.5\nsamples = 12\nvalue = 35276.5"] ;
652 -> 654 ;
655 [label="mse = -0.0\nsamples = 1\nvalue = 37385.0"] ;
651 -> 655 ;
656 [label="log_population <= -1.1\nmse = 2492910.6\nsamples = 33\nvalue = 37434.1"] ;
646 -> 656 ;
657 [label="age <= 0.1\nmse = 1150728.2\nsamples = 3\nvalue = 34560.8"] ;
656 -> 657 ;
658 [label="median_income_sqrt <= 0.3\nmse = 313824.0\nsamples = 2\nvalue = 33874.7"] ;
657 -> 658 ;
659 [label="mse = 0.0\nsamples = 1\nvalue = 34434.9"] ;
658 -> 659 ;
660 [label="mse = -0.0\nsamples = 1\nvalue = 33314.5"] ;
658 -> 660 ;
661 [label="mse = -0.0\nsamples = 1\nvalue = 35933.1"] ;
657 -> 661 ;
662 [label="median_income_sqrt <= 0.6\nmse = 2028568.0\nsamples = 30\nvalue = 37613.7"] ;
656 -> 662 ;
663 [label="ptratio <= -0.0\nmse = 1101225.1\nsamples = 11\nvalue = 38644.8"] ;
662 -> 663 ;
664 [label="rm <= 1.2\nmse = 547960.5\nsamples = 9\nvalue = 39114.5"] ;
663 -> 664 ;
665 [label="mse = 110929.1\nsamples = 7\nvalue = 38815.1"] ;
664 -> 665 ;
666 [label="mse = 44565.3\nsamples = 2\nvalue = 40611.3"] ;
664 -> 666 ;
667 [label="ptratio <= 0.3\nmse = 113409.1\nsamples = 2\nvalue = 37235.6"] ;
663 -> 667 ;
668 [label="mse = 0.0\nsamples = 1\nvalue = 36652.3"] ;
667 -> 668 ;
669 [label="mse = 0.0\nsamples = 1\nvalue = 37430.1"] ;
667 -> 669 ;
670 [label="zn <= 0.9\nmse = 1694872.4\nsamples = 19\nvalue = 37098.1"] ;
662 -> 670 ;
671 [label="zn <= -0.6\nmse = 739444.8\nsamples = 7\nvalue = 38177.6"] ;
670 -> 671 ;
672 [label="mse = 90820.4\nsamples = 2\nvalue = 36719.5"] ;
671 -> 672 ;
673 [label="mse = 104855.8\nsamples = 5\nvalue = 38615.1"] ;
671 -> 673 ;
674 [label="ptratio <= -0.1\nmse = 1005756.8\nsamples = 12\nvalue = 36359.5"] ;
670 -> 674 ;
675 [label="mse = 615640.1\nsamples = 10\nvalue = 36718.5"] ;
674 -> 675 ;
676 [label="mse = 173826.5\nsamples = 2\nvalue = 35013.5"] ;
674 -> 676 ;
677 [label="rm <= 0.9\nmse = 3892586.5\nsamples = 105\nvalue = 38737.7"] ;
645 -> 677 ;
678 [label="rm <= 0.9\nmse = 4397353.5\nsamples = 54\nvalue = 38304.0"] ;
677 -> 678 ;
679 [label="log_population <= -0.3\nmse = 3976290.9\nsamples = 49\nvalue = 38528.9"] ;
678 -> 679 ;
680 [label="median_income_sqrt <= 0.9\nmse = 4104710.1\nsamples = 22\nvalue = 37923.7"] ;
679 -> 680 ;
681 [label="age <= 0.7\nmse = 4255420.6\nsamples = 12\nvalue = 38717.6"] ;
680 -> 681 ;
682 [label="mse = 2545523.5\nsamples = 11\nvalue = 39125.5"] ;
681 -> 682 ;
683 [label="mse = -0.0\nsamples = 1\nvalue = 34026.6"] ;
681 -> 683 ;
684 [label="indus <= -0.9\nmse = 1804167.0\nsamples = 10\nvalue = 36821.0"] ;
680 -> 684 ;
685 [label="mse = 918676.7\nsamples = 8\nvalue = 37369.0"] ;
684 -> 685 ;
686 [label="mse = 173630.6\nsamples = 2\nvalue = 34903.0"] ;
684 -> 686 ;
687 [label="median_home_value <= 1.0\nmse = 3021083.5\nsamples = 27\nvalue = 39179.6"] ;
679 -> 687 ;
688 [label="zn <= 0.3\nmse = 374616.0\nsamples = 7\nvalue = 41387.5"] ;
687 -> 688 ;
689 [label="mse = 2787.3\nsamples = 2\nvalue = 42285.0"] ;
688 -> 689 ;
690 [label="mse = 140557.1\nsamples = 5\nvalue = 41088.4"] ;
688 -> 690 ;
691 [label="rm <= 0.6\nmse = 2159262.1\nsamples = 20\nvalue = 38627.6"] ;
687 -> 691 ;
692 [label="mse = 1447075.7\nsamples = 14\nvalue = 39064.4"] ;
691 -> 692 ;
693 [label="mse = 2245891.1\nsamples = 6\nvalue = 37511.4"] ;
691 -> 693 ;
694 [label="ptratio <= -0.9\nmse = 2793945.8\nsamples = 5\nvalue = 35970.1"] ;
678 -> 694 ;
695 [label="median_income_sqrt <= 0.9\nmse = 93037.2\nsamples = 2\nvalue = 34489.1"] ;
694 -> 695 ;
696 [label="mse = 0.0\nsamples = 1\nvalue = 34794.1"] ;
695 -> 696 ;
697 [label="mse = -0.0\nsamples = 1\nvalue = 34184.1"] ;
695 -> 697 ;
698 [label="median_income_sqrt <= 0.6\nmse = 1108139.7\nsamples = 3\nvalue = 37451.1"] ;
694 -> 698 ;
699 [label="mse = 0.0\nsamples = 1\nvalue = 39176.5"] ;
698 -> 699 ;
700 [label="ptratio <= -0.5\nmse = 154479.1\nsamples = 2\nvalue = 36876.0"] ;
698 -> 700 ;
701 [label="mse = 0.0\nsamples = 1\nvalue = 36320.2"] ;
700 -> 701 ;
702 [label="mse = 0.0\nsamples = 1\nvalue = 37153.9"] ;
700 -> 702 ;
703 [label="median_income_sqrt <= 0.7\nmse = 2736647.5\nsamples = 51\nvalue = 39278.3"] ;
677 -> 703 ;
704 [label="log_population <= -0.1\nmse = 1572708.5\nsamples = 14\nvalue = 37975.1"] ;
703 -> 704 ;
705 [label="median_income_sqrt <= 0.6\nmse = 1474287.9\nsamples = 6\nvalue = 37051.9"] ;
704 -> 705 ;
706 [label="crim <= -0.5\nmse = 322921.6\nsamples = 3\nvalue = 37909.5"] ;
705 -> 706 ;
707 [label="mse = 0.0\nsamples = 1\nvalue = 38803.1"] ;
706 -> 707 ;
708 [label="mse = 75657.9\nsamples = 2\nvalue = 37611.6"] ;
706 -> 708 ;
709 [label="median_home_value_sq <= 0.9\nmse = 721139.4\nsamples = 3\nvalue = 35908.4"] ;
705 -> 709 ;
710 [label="mse = 0.0\nsamples = 1\nvalue = 37101.8"] ;
709 -> 710 ;
711 [label="mse = 13449.0\nsamples = 2\nvalue = 35311.6"] ;
709 -> 711 ;
712 [label="log_population <= 0.3\nmse = 919560.1\nsamples = 8\nvalue = 38472.3"] ;
704 -> 712 ;
713 [label="median_home_value_sq <= 0.8\nmse = 433674.2\nsamples = 3\nvalue = 39618.0"] ;
712 -> 713 ;
714 [label="mse = 0.0\nsamples = 1\nvalue = 38551.8"] ;
713 -> 714 ;
715 [label="mse = 72934.0\nsamples = 2\nvalue = 39973.4"] ;
713 -> 715 ;
716 [label="zn <= 0.7\nmse = 292769.2\nsamples = 5\nvalue = 37963.1"] ;
712 -> 716 ;
717 [label="mse = 10435.3\nsamples = 2\nvalue = 37383.2"] ;
716 -> 717 ;
718 [label="mse = 181803.3\nsamples = 3\nvalue = 38253.0"] ;
716 -> 718 ;
719 [label="tax <= -0.4\nmse = 2293241.8\nsamples = 37\nvalue = 39770.0"] ;
703 -> 719 ;
720 [label="age <= -0.3\nmse = 1800800.3\nsamples = 35\nvalue = 39918.2"] ;
719 -> 720 ;
721 [label="log_population <= 0.6\nmse = 1446985.6\nsamples = 29\nvalue = 39675.8"] ;
720 -> 721 ;
722 [label="mse = 1301537.2\nsamples = 28\nvalue = 39739.6"] ;
721 -> 722 ;
723 [label="mse = 0.0\nsamples = 1\nvalue = 36932.4"] ;
721 -> 723 ;
724 [label="indus <= -1.3\nmse = 1332341.2\nsamples = 6\nvalue = 41442.4"] ;
720 -> 724 ;
725 [label="mse = 125840.1\nsamples = 3\nvalue = 42390.6"] ;
724 -> 725 ;
726 [label="mse = 143338.9\nsamples = 3\nvalue = 40178.0"] ;
724 -> 726 ;
727 [label="tax <= 0.3\nmse = 530.4\nsamples = 2\nvalue = 35989.8"] ;
719 -> 727 ;
728 [label="mse = 0.0\nsamples = 1\nvalue = 36012.9"] ;
727 -> 728 ;
729 [label="mse = 0.0\nsamples = 1\nvalue = 35966.8"] ;
727 -> 729 ;
730 [label="log_population <= -0.4\nmse = 3409178.0\nsamples = 139\nvalue = 36333.8"] ;
644 -> 730 ;
731 [label="crim <= -0.5\nmse = 3128093.2\nsamples = 72\nvalue = 35617.9"] ;
730 -> 731 ;
732 [label="crim <= -0.5\nmse = 152713.8\nsamples = 3\nvalue = 39576.1"] ;
731 -> 732 ;
733 [label="mse = 0.0\nsamples = 1\nvalue = 38912.5"] ;
732 -> 733 ;
734 [label="ptratio <= -1.2\nmse = 7866.8\nsamples = 2\nvalue = 39797.4"] ;
732 -> 734 ;
735 [label="mse = 0.0\nsamples = 1\nvalue = 39734.6"] ;
734 -> 735 ;
736 [label="mse = 0.0\nsamples = 1\nvalue = 39922.8"] ;
734 -> 736 ;
737 [label="tax <= -1.2\nmse = 2667660.1\nsamples = 69\nvalue = 35480.2"] ;
731 -> 737 ;
738 [label="rm <= 1.6\nmse = 622831.2\nsamples = 5\nvalue = 37719.5"] ;
737 -> 738 ;
739 [label="rm <= 1.0\nmse = 139739.5\nsamples = 4\nvalue = 38176.9"] ;
738 -> 739 ;
740 [label="mse = 0.0\nsamples = 1\nvalue = 38632.3"] ;
739 -> 740 ;
741 [label="crim <= -0.5\nmse = 2456.6\nsamples = 3\nvalue = 37873.3"] ;
739 -> 741 ;
742 [label="mse = 0.0\nsamples = 1\nvalue = 37809.6"] ;
741 -> 742 ;
743 [label="mse = 644.1\nsamples = 2\nvalue = 37905.1"] ;
741 -> 743 ;
744 [label="mse = -0.0\nsamples = 1\nvalue = 36576.0"] ;
738 -> 744 ;
745 [label="median_home_value <= 1.4\nmse = 2454116.6\nsamples = 64\nvalue = 35335.1"] ;
737 -> 745 ;
746 [label="rm <= 0.3\nmse = 1861929.0\nsamples = 26\nvalue = 35969.1"] ;
745 -> 746 ;
747 [label="mse = 0.0\nsamples = 1\nvalue = 39762.0"] ;
746 -> 747 ;
748 [label="ptratio <= -2.2\nmse = 1569847.3\nsamples = 25\nvalue = 35882.9"] ;
746 -> 748 ;
749 [label="mse = 1458011.6\nsamples = 13\nvalue = 36402.3"] ;
748 -> 749 ;
750 [label="mse = 1142000.0\nsamples = 12\nvalue = 35363.4"] ;
748 -> 750 ;
751 [label="median_income_sqrt <= 1.4\nmse = 2384893.1\nsamples = 38\nvalue = 34882.2"] ;
745 -> 751 ;
752 [label="median_home_value <= 1.5\nmse = 2096842.3\nsamples = 23\nvalue = 35262.8"] ;
751 -> 752 ;
753 [label="mse = 0.0\nsamples = 1\nvalue = 31615.7"] ;
752 -> 753 ;
754 [label="mse = 1808422.6\nsamples = 22\nvalue = 35354.0"] ;
752 -> 754 ;
755 [label="zn <= 1.1\nmse = 2148681.8\nsamples = 15\nvalue = 34172.9"] ;
751 -> 755 ;
756 [label="mse = 913912.4\nsamples = 7\nvalue = 34768.3"] ;
755 -> 756 ;
757 [label="mse = 2694531.3\nsamples = 8\nvalue = 33458.4"] ;
755 -> 757 ;
758 [label="median_income_sqrt <= 1.2\nmse = 2632203.2\nsamples = 67\nvalue = 37068.3"] ;
730 -> 758 ;
759 [label="ptratio <= -0.4\nmse = 2682603.5\nsamples = 26\nvalue = 37957.5"] ;
758 -> 759 ;
760 [label="rm <= 1.7\nmse = 1609737.3\nsamples = 21\nvalue = 38411.4"] ;
759 -> 760 ;
761 [label="median_income_sqrt <= 1.1\nmse = 1312440.4\nsamples = 19\nvalue = 38267.4"] ;
760 -> 761 ;
762 [label="median_income_sqrt <= 0.7\nmse = 959383.0\nsamples = 18\nvalue = 38376.7"] ;
761 -> 762 ;
763 [label="mse = 400816.6\nsamples = 4\nvalue = 37264.9"] ;
762 -> 763 ;
764 [label="mse = 672770.4\nsamples = 14\nvalue = 38688.0"] ;
762 -> 764 ;
765 [label="mse = -0.0\nsamples = 1\nvalue = 34770.5"] ;
761 -> 765 ;
766 [label="median_income_sqrt <= 1.1\nmse = 526009.3\nsamples = 2\nvalue = 40787.7"] ;
760 -> 766 ;
767 [label="mse = 0.0\nsamples = 1\nvalue = 40062.5"] ;
766 -> 767 ;
768 [label="mse = 0.0\nsamples = 1\nvalue = 41513.0"] ;
766 -> 768 ;
769 [label="median_income_sqrt <= 0.9\nmse = 3458303.1\nsamples = 5\nvalue = 36633.7"] ;
759 -> 769 ;
770 [label="median_income_sqrt <= 0.8\nmse = 53986.8\nsamples = 3\nvalue = 35764.3"] ;
769 -> 770 ;
771 [label="tax <= -0.8\nmse = 4267.6\nsamples = 2\nvalue = 35604.3"] ;
770 -> 771 ;
772 [label="mse = 0.0\nsamples = 1\nvalue = 35558.2"] ;
771 -> 772 ;
773 [label="mse = 0.0\nsamples = 1\nvalue = 35696.7"] ;
771 -> 773 ;
774 [label="mse = 0.0\nsamples = 1\nvalue = 36084.1"] ;
770 -> 774 ;
775 [label="median_income_sqrt <= 1.1\nmse = 4600535.3\nsamples = 2\nvalue = 39241.9"] ;
769 -> 775 ;
776 [label="mse = 0.0\nsamples = 1\nvalue = 40758.6"] ;
775 -> 776 ;
777 [label="mse = -0.0\nsamples = 1\nvalue = 36208.6"] ;
775 -> 777 ;
778 [label="median_home_value_sq <= 1.6\nmse = 1692436.9\nsamples = 41\nvalue = 36462.6"] ;
758 -> 778 ;
779 [label="age <= 1.1\nmse = 1310230.9\nsamples = 36\nvalue = 36719.1"] ;
778 -> 779 ;
780 [label="crim <= -0.4\nmse = 989554.4\nsamples = 34\nvalue = 36515.6"] ;
779 -> 780 ;
781 [label="log_population <= -0.3\nmse = 830747.4\nsamples = 33\nvalue = 36624.1"] ;
780 -> 781 ;
782 [label="mse = -0.0\nsamples = 1\nvalue = 38045.5"] ;
781 -> 782 ;
783 [label="mse = 750344.9\nsamples = 32\nvalue = 36537.1"] ;
781 -> 783 ;
784 [label="mse = 0.0\nsamples = 1\nvalue = 34634.6"] ;
780 -> 784 ;
785 [label="median_home_value <= 1.5\nmse = 390662.5\nsamples = 2\nvalue = 38584.5"] ;
779 -> 785 ;
786 [label="mse = 0.0\nsamples = 1\nvalue = 39209.5"] ;
785 -> 786 ;
787 [label="mse = 0.0\nsamples = 1\nvalue = 37959.4"] ;
785 -> 787 ;
788 [label="age <= -0.2\nmse = 280903.6\nsamples = 5\nvalue = 34507.1"] ;
778 -> 788 ;
789 [label="log_population <= 0.3\nmse = 73541.4\nsamples = 3\nvalue = 34234.6"] ;
788 -> 789 ;
790 [label="log_population <= -0.1\nmse = 5340.6\nsamples = 2\nvalue = 34047.5"] ;
789 -> 790 ;
791 [label="mse = 0.0\nsamples = 1\nvalue = 33920.9"] ;
790 -> 791 ;
792 [label="mse = 0.0\nsamples = 1\nvalue = 34089.7"] ;
790 -> 792 ;
793 [label="mse = -0.0\nsamples = 1\nvalue = 34608.7"] ;
789 -> 793 ;
794 [label="rm <= 1.5\nmse = 12013.3\nsamples = 2\nvalue = 35324.5"] ;
788 -> 794 ;
795 [label="mse = 0.0\nsamples = 1\nvalue = 35434.1"] ;
794 -> 795 ;
796 [label="mse = 0.0\nsamples = 1\nvalue = 35214.9"] ;
794 -> 796 ;
797 [label="tax <= -0.7\nmse = 5688980.4\nsamples = 48\nvalue = 40622.7"] ;
643 -> 797 ;
798 [label="median_home_value <= 1.3\nmse = 3603480.1\nsamples = 38\nvalue = 39958.4"] ;
797 -> 798 ;
799 [label="age <= -0.6\nmse = 3587784.7\nsamples = 22\nvalue = 40711.8"] ;
798 -> 799 ;
800 [label="crim <= -0.5\nmse = 2634948.8\nsamples = 11\nvalue = 41838.5"] ;
799 -> 800 ;
801 [label="zn <= 1.0\nmse = 2080481.7\nsamples = 6\nvalue = 43000.8"] ;
800 -> 801 ;
802 [label="age <= -1.4\nmse = 974658.3\nsamples = 5\nvalue = 43419.6"] ;
801 -> 802 ;
803 [label="mse = 0.0\nsamples = 1\nvalue = 45792.7"] ;
802 -> 803 ;
804 [label="indus <= -1.4\nmse = 42091.0\nsamples = 4\nvalue = 43024.1"] ;
802 -> 804 ;
805 [label="mse = 0.0\nsamples = 1\nvalue = 43308.6"] ;
804 -> 805 ;
806 [label="mse = 2415.7\nsamples = 3\nvalue = 42881.8"] ;
804 -> 806 ;
807 [label="mse = -0.0\nsamples = 1\nvalue = 40069.3"] ;
801 -> 807 ;
808 [label="indus <= -0.9\nmse = 487286.4\nsamples = 5\nvalue = 40676.1"] ;
800 -> 808 ;
809 [label="crim <= -0.5\nmse = 186777.5\nsamples = 4\nvalue = 40461.0"] ;
808 -> 809 ;
810 [label="rm <= 0.8\nmse = 25558.4\nsamples = 2\nvalue = 40820.4"] ;
809 -> 810 ;
811 [label="mse = 0.0\nsamples = 1\nvalue = 40980.2"] ;
810 -> 811 ;
812 [label="mse = -0.0\nsamples = 1\nvalue = 40660.5"] ;
810 -> 812 ;
813 [label="indus <= -1.1\nmse = 42.0\nsamples = 2\nvalue = 39981.9"] ;
809 -> 813 ;
814 [label="mse = 0.0\nsamples = 1\nvalue = 39991.1"] ;
813 -> 814 ;
815 [label="mse = -0.0\nsamples = 1\nvalue = 39977.3"] ;
813 -> 815 ;
816 [label="mse = -0.0\nsamples = 1\nvalue = 42181.8"] ;
808 -> 816 ;
817 [label="indus <= -1.4\nmse = 2420970.5\nsamples = 11\nvalue = 39763.0"] ;
799 -> 817 ;
818 [label="median_income_sqrt <= 1.3\nmse = 615494.2\nsamples = 3\nvalue = 41336.6"] ;
817 -> 818 ;
819 [label="mse = 0.0\nsamples = 1\nvalue = 40597.9"] ;
818 -> 819 ;
820 [label="age <= -0.4\nmse = 139751.3\nsamples = 2\nvalue = 42075.2"] ;
818 -> 820 ;
821 [label="mse = 0.0\nsamples = 1\nvalue = 42603.9"] ;
820 -> 821 ;
822 [label="mse = -0.0\nsamples = 1\nvalue = 41810.9"] ;
820 -> 822 ;
823 [label="ptratio <= -0.6\nmse = 1583975.6\nsamples = 8\nvalue = 39036.7"] ;
817 -> 823 ;
824 [label="tax <= -1.0\nmse = 222087.9\nsamples = 4\nvalue = 40221.7"] ;
823 -> 824 ;
825 [label="indus <= -1.4\nmse = 26497.6\nsamples = 2\nvalue = 39783.7"] ;
824 -> 825 ;
826 [label="mse = 0.0\nsamples = 1\nvalue = 39898.8"] ;
825 -> 826 ;
827 [label="mse = 0.0\nsamples = 1\nvalue = 39553.5"] ;
825 -> 827 ;
828 [label="median_income_sqrt <= 1.3\nmse = 34013.5\nsamples = 2\nvalue = 40659.7"] ;
824 -> 828 ;
829 [label="mse = 0.0\nsamples = 1\nvalue = 40920.5"] ;
828 -> 829 ;
830 [label="mse = -0.0\nsamples = 1\nvalue = 40529.3"] ;
828 -> 830 ;
831 [label="ptratio <= -0.5\nmse = 516042.0\nsamples = 4\nvalue = 38021.0"] ;
823 -> 831 ;
832 [label="mse = 0.0\nsamples = 1\nvalue = 36371.2"] ;
831 -> 832 ;
833 [label="median_home_value <= 1.0\nmse = 72767.5\nsamples = 3\nvalue = 38296.0"] ;
831 -> 833 ;
834 [label="mse = -0.0\nsamples = 1\nvalue = 38559.1"] ;
833 -> 834 ;
835 [label="mse = 7049.6\nsamples = 2\nvalue = 38032.8"] ;
833 -> 835 ;
836 [label="median_home_value <= 1.3\nmse = 1934384.8\nsamples = 16\nvalue = 38981.8"] ;
798 -> 836 ;
837 [label="mse = 0.0\nsamples = 1\nvalue = 34435.7"] ;
836 -> 837 ;
838 [label="median_income_sqrt <= 0.8\nmse = 1183315.4\nsamples = 15\nvalue = 39156.7"] ;
836 -> 838 ;
839 [label="tax <= -1.3\nmse = 565733.0\nsamples = 6\nvalue = 38495.0"] ;
838 -> 839 ;
840 [label="median_home_value <= 1.5\nmse = 130775.8\nsamples = 4\nvalue = 38079.6"] ;
839 -> 840 ;
841 [label="ptratio <= -1.3\nmse = 18502.5\nsamples = 2\nvalue = 38261.7"] ;
840 -> 841 ;
842 [label="mse = 0.0\nsamples = 1\nvalue = 38565.8"] ;
841 -> 842 ;
843 [label="mse = 0.0\nsamples = 1\nvalue = 38200.8"] ;
841 -> 843 ;
844 [label="crim <= -0.5\nmse = 69843.9\nsamples = 2\nvalue = 37533.4"] ;
840 -> 844 ;
845 [label="mse = 0.0\nsamples = 1\nvalue = 37797.7"] ;
844 -> 845 ;
846 [label="mse = 0.0\nsamples = 1\nvalue = 37269.2"] ;
844 -> 846 ;
847 [label="rm <= 0.5\nmse = 38440.3\nsamples = 2\nvalue = 39602.7"] ;
839 -> 847 ;
848 [label="mse = 0.0\nsamples = 1\nvalue = 39325.4"] ;
847 -> 848 ;
849 [label="mse = -0.0\nsamples = 1\nvalue = 39741.4"] ;
847 -> 849 ;
850 [label="tax <= -0.9\nmse = 1079699.4\nsamples = 9\nvalue = 39641.9"] ;
838 -> 850 ;
851 [label="age <= -0.0\nmse = 497847.9\nsamples = 8\nvalue = 39851.5"] ;
850 -> 851 ;
852 [label="median_home_value_sq <= 1.2\nmse = 238931.9\nsamples = 7\nvalue = 40072.5"] ;
851 -> 852 ;
853 [label="mse = 0.0\nsamples = 1\nvalue = 41072.2"] ;
852 -> 853 ;
854 [label="mse = 46890.2\nsamples = 6\nvalue = 39872.6"] ;
852 -> 854 ;
855 [label="mse = -0.0\nsamples = 1\nvalue = 38525.5"] ;
851 -> 855 ;
856 [label="mse = 0.0\nsamples = 1\nvalue = 36707.5"] ;
850 -> 856 ;
857 [label="log_population <= 1.6\nmse = 5433198.2\nsamples = 10\nvalue = 43197.0"] ;
797 -> 857 ;
858 [label="log_population <= 1.0\nmse = 2119652.1\nsamples = 6\nvalue = 41651.8"] ;
857 -> 858 ;
859 [label="log_population <= 0.8\nmse = 492548.0\nsamples = 2\nvalue = 39758.3"] ;
858 -> 859 ;
860 [label="mse = 0.0\nsamples = 1\nvalue = 38765.8"] ;
859 -> 860 ;
861 [label="mse = 0.0\nsamples = 1\nvalue = 40254.6"] ;
859 -> 861 ;
862 [label="rm <= -0.4\nmse = 244156.4\nsamples = 4\nvalue = 42598.6"] ;
858 -> 862 ;
863 [label="mse = 0.0\nsamples = 1\nvalue = 41529.9"] ;
862 -> 863 ;
864 [label="crim <= -0.4\nmse = 18893.5\nsamples = 3\nvalue = 42812.3"] ;
862 -> 864 ;
865 [label="crim <= -0.5\nmse = 1423.6\nsamples = 2\nvalue = 42922.0"] ;
864 -> 865 ;
866 [label="mse = 0.0\nsamples = 1\nvalue = 42948.6"] ;
865 -> 866 ;
867 [label="mse = -0.0\nsamples = 1\nvalue = 42868.6"] ;
865 -> 867 ;
868 [label="mse = -0.0\nsamples = 1\nvalue = 42647.8"] ;
864 -> 868 ;
869 [label="ptratio <= -0.6\nmse = 2676538.2\nsamples = 4\nvalue = 45183.7"] ;
857 -> 869 ;
870 [label="median_income_sqrt <= 0.6\nmse = 5030.7\nsamples = 2\nvalue = 47029.0"] ;
869 -> 870 ;
871 [label="mse = 0.0\nsamples = 1\nvalue = 46978.9"] ;
870 -> 871 ;
872 [label="mse = -0.0\nsamples = 1\nvalue = 47129.3"] ;
870 -> 872 ;
873 [label="zn <= 2.2\nmse = 211048.4\nsamples = 2\nvalue = 43799.8"] ;
869 -> 873 ;
874 [label="mse = 0.0\nsamples = 1\nvalue = 43340.4"] ;
873 -> 874 ;
875 [label="mse = 0.0\nsamples = 1\nvalue = 44259.2"] ;
873 -> 875 ;
876 [label="median_home_value_sq <= 2.5\nmse = 5736518.5\nsamples = 205\nvalue = 32326.8"] ;
642 -> 876 ;
877 [label="zn <= 1.2\nmse = 4573696.9\nsamples = 31\nvalue = 34174.2"] ;
876 -> 877 ;
878 [label="crim <= -0.5\nmse = 2583149.6\nsamples = 26\nvalue = 34828.8"] ;
877 -> 878 ;
879 [label="indus <= -1.2\nmse = 3101904.3\nsamples = 8\nvalue = 36218.8"] ;
878 -> 879 ;
880 [label="zn <= -0.3\nmse = 1551910.7\nsamples = 6\nvalue = 35429.0"] ;
879 -> 880 ;
881 [label="tax <= -0.9\nmse = 1688695.6\nsamples = 3\nvalue = 36596.5"] ;
880 -> 881 ;
882 [label="ptratio <= -0.6\nmse = 318785.2\nsamples = 2\nvalue = 37291.6"] ;
881 -> 882 ;
883 [label="mse = 0.0\nsamples = 1\nvalue = 36892.4"] ;
882 -> 883 ;
884 [label="mse = 0.0\nsamples = 1\nvalue = 38090.1"] ;
882 -> 884 ;
885 [label="mse = 0.0\nsamples = 1\nvalue = 34511.1"] ;
881 -> 885 ;
886 [label="tax <= -1.3\nmse = 461306.4\nsamples = 3\nvalue = 34845.3"] ;
880 -> 886 ;
887 [label="mse = 0.0\nsamples = 1\nvalue = 35450.4"] ;
886 -> 887 ;
888 [label="indus <= -1.3\nmse = 190372.2\nsamples = 2\nvalue = 34240.2"] ;
886 -> 888 ;
889 [label="mse = 0.0\nsamples = 1\nvalue = 33484.5"] ;
888 -> 889 ;
890 [label="mse = 0.0\nsamples = 1\nvalue = 34492.1"] ;
888 -> 890 ;
891 [label="median_income_sqrt <= 1.5\nmse = 266539.9\nsamples = 2\nvalue = 38588.2"] ;
879 -> 891 ;
892 [label="mse = 0.0\nsamples = 1\nvalue = 38071.9"] ;
891 -> 892 ;
893 [label="mse = 0.0\nsamples = 1\nvalue = 39104.5"] ;
891 -> 893 ;
894 [label="ptratio <= -0.6\nmse = 940597.4\nsamples = 18\nvalue = 34154.8"] ;
878 -> 894 ;
895 [label="rm <= 1.3\nmse = 657099.2\nsamples = 17\nvalue = 34252.2"] ;
894 -> 895 ;
896 [label="median_home_value <= 2.0\nmse = 43115.2\nsamples = 3\nvalue = 33108.9"] ;
895 -> 896 ;
897 [label="mse = 0.0\nsamples = 1\nvalue = 32727.6"] ;
896 -> 897 ;
898 [label="crim <= -0.4\nmse = 8450.2\nsamples = 2\nvalue = 33204.2"] ;
896 -> 898 ;
899 [label="mse = 0.0\nsamples = 1\nvalue = 33112.3"] ;
898 -> 899 ;
900 [label="mse = 0.0\nsamples = 1\nvalue = 33296.2"] ;
898 -> 900 ;
901 [label="ptratio <= -0.8\nmse = 483921.2\nsamples = 14\nvalue = 34463.9"] ;
895 -> 901 ;
902 [label="ptratio <= -1.2\nmse = 339147.6\nsamples = 12\nvalue = 34612.7"] ;
901 -> 902 ;
903 [label="median_home_value <= 2.1\nmse = 217430.7\nsamples = 4\nvalue = 33952.0"] ;
902 -> 903 ;
904 [label="mse = 90668.9\nsamples = 3\nvalue = 33704.9"] ;
903 -> 904 ;
905 [label="mse = 0.0\nsamples = 1\nvalue = 34569.8"] ;
903 -> 905 ;
906 [label="log_population <= -0.7\nmse = 135544.6\nsamples = 8\nvalue = 34884.7"] ;
902 -> 906 ;
907 [label="mse = 0.0\nsamples = 1\nvalue = 34040.2"] ;
906 -> 907 ;
908 [label="mse = 45854.7\nsamples = 7\nvalue = 34997.3"] ;
906 -> 908 ;
909 [label="log_population <= -0.4\nmse = 48784.4\nsamples = 2\nvalue = 33273.8"] ;
901 -> 909 ;
910 [label="mse = 0.0\nsamples = 1\nvalue = 33586.2"] ;
909 -> 910 ;
911 [label="mse = 0.0\nsamples = 1\nvalue = 33117.6"] ;
909 -> 911 ;
912 [label="mse = -0.0\nsamples = 1\nvalue = 31038.9"] ;
894 -> 912 ;
913 [label="rm <= 2.0\nmse = 379175.7\nsamples = 5\nvalue = 30610.6"] ;
877 -> 913 ;
914 [label="rm <= 0.9\nmse = 143179.4\nsamples = 4\nvalue = 30887.2"] ;
913 -> 914 ;
915 [label="median_home_value_sq <= 2.5\nmse = 3989.1\nsamples = 2\nvalue = 30563.4"] ;
914 -> 915 ;
916 [label="mse = 0.0\nsamples = 1\nvalue = 30599.8"] ;
915 -> 916 ;
917 [label="mse = 0.0\nsamples = 1\nvalue = 30454.0"] ;
915 -> 917 ;
918 [label="indus <= -1.2\nmse = 2452.3\nsamples = 2\nvalue = 31319.0"] ;
914 -> 918 ;
919 [label="mse = 0.0\nsamples = 1\nvalue = 31354.1"] ;
918 -> 919 ;
920 [label="mse = -0.0\nsamples = 1\nvalue = 31249.0"] ;
918 -> 920 ;
921 [label="mse = 0.0\nsamples = 1\nvalue = 29642.4"] ;
913 -> 921 ;
922 [label="median_income_sqrt <= 3.3\nmse = 5115692.9\nsamples = 174\nvalue = 31939.9"] ;
876 -> 922 ;
923 [label="tax <= -0.9\nmse = 4279807.9\nsamples = 155\nvalue = 31638.9"] ;
922 -> 923 ;
924 [label="rm <= 2.5\nmse = 4507624.0\nsamples = 25\nvalue = 32729.1"] ;
923 -> 924 ;
925 [label="log_population <= -0.6\nmse = 3844801.6\nsamples = 17\nvalue = 33436.1"] ;
924 -> 925 ;
926 [label="rm <= 2.0\nmse = 1634786.3\nsamples = 4\nvalue = 35582.7"] ;
925 -> 926 ;
927 [label="mse = 0.0\nsamples = 1\nvalue = 32133.0"] ;
926 -> 927 ;
928 [label="log_population <= -0.9\nmse = 165561.1\nsamples = 3\nvalue = 36014.0"] ;
926 -> 928 ;
929 [label="mse = 0.0\nsamples = 1\nvalue = 35309.7"] ;
928 -> 929 ;
930 [label="indus <= -0.8\nmse = 280.4\nsamples = 2\nvalue = 36248.7"] ;
928 -> 930 ;
931 [label="mse = 0.0\nsamples = 1\nvalue = 36225.1"] ;
930 -> 931 ;
932 [label="mse = -0.0\nsamples = 1\nvalue = 36260.6"] ;
930 -> 932 ;
933 [label="indus <= -1.0\nmse = 2092648.1\nsamples = 13\nvalue = 32558.0"] ;
925 -> 933 ;
934 [label="crim <= -0.5\nmse = 1442819.3\nsamples = 8\nvalue = 33259.3"] ;
933 -> 934 ;
935 [label="mse = 0.0\nsamples = 1\nvalue = 31793.3"] ;
934 -> 935 ;
936 [label="ptratio <= -1.2\nmse = 704341.1\nsamples = 7\nvalue = 33910.9"] ;
934 -> 936 ;
937 [label="mse = 152855.1\nsamples = 3\nvalue = 33128.8"] ;
936 -> 937 ;
938 [label="mse = 264703.3\nsamples = 4\nvalue = 34536.5"] ;
936 -> 938 ;
939 [label="crim <= -0.4\nmse = 1294593.4\nsamples = 5\nvalue = 31544.9"] ;
933 -> 939 ;
940 [label="median_home_value_sq <= 2.9\nmse = 445038.8\nsamples = 4\nvalue = 31880.2"] ;
939 -> 940 ;
941 [label="mse = 240046.3\nsamples = 2\nvalue = 32400.2"] ;
940 -> 941 ;
942 [label="mse = 109210.4\nsamples = 2\nvalue = 31360.2"] ;
940 -> 942 ;
943 [label="mse = -0.0\nsamples = 1\nvalue = 28863.1"] ;
939 -> 943 ;
944 [label="median_income_sqrt <= 2.2\nmse = 996567.1\nsamples = 8\nvalue = 30736.6"] ;
924 -> 944 ;
945 [label="log_population <= 0.1\nmse = 456600.2\nsamples = 4\nvalue = 31419.0"] ;
944 -> 945 ;
946 [label="zn <= 0.5\nmse = 160678.1\nsamples = 3\nvalue = 31837.0"] ;
945 -> 946 ;
947 [label="tax <= -1.0\nmse = 1164.2\nsamples = 2\nvalue = 32237.2"] ;
946 -> 947 ;
948 [label="mse = 0.0\nsamples = 1\nvalue = 32203.0"] ;
947 -> 948 ;
949 [label="mse = -0.0\nsamples = 1\nvalue = 32271.3"] ;
947 -> 949 ;
950 [label="mse = 0.0\nsamples = 1\nvalue = 31436.9"] ;
946 -> 950 ;
951 [label="mse = -0.0\nsamples = 1\nvalue = 30583.0"] ;
945 -> 951 ;
952 [label="rm <= 2.8\nmse = 414962.7\nsamples = 4\nvalue = 29917.6"] ;
944 -> 952 ;
953 [label="median_home_value_sq <= 3.2\nmse = 59672.7\nsamples = 2\nvalue = 30579.0"] ;
952 -> 953 ;
954 [label="mse = 0.0\nsamples = 1\nvalue = 30334.7"] ;
953 -> 954 ;
955 [label="mse = 0.0\nsamples = 1\nvalue = 30823.3"] ;
953 -> 955 ;
956 [label="rm <= 2.9\nmse = 165811.2\nsamples = 2\nvalue = 29476.7"] ;
952 -> 956 ;
957 [label="mse = 0.0\nsamples = 1\nvalue = 29764.6"] ;
956 -> 957 ;
958 [label="mse = 0.0\nsamples = 1\nvalue = 28900.8"] ;
956 -> 958 ;
959 [label="median_home_value_sq <= 4.5\nmse = 3921724.7\nsamples = 130\nvalue = 31405.3"] ;
923 -> 959 ;
960 [label="tax <= -0.7\nmse = 3586873.6\nsamples = 126\nvalue = 31318.9"] ;
959 -> 960 ;
961 [label="age <= 0.1\nmse = 2430947.9\nsamples = 28\nvalue = 30372.7"] ;
960 -> 961 ;
962 [label="median_home_value <= 3.0\nmse = 2874634.2\nsamples = 19\nvalue = 30833.8"] ;
961 -> 962 ;
963 [label="log_population <= -0.7\nmse = 3021913.3\nsamples = 13\nvalue = 31525.1"] ;
962 -> 963 ;
964 [label="mse = 3874850.2\nsamples = 5\nvalue = 33039.4"] ;
963 -> 964 ;
965 [label="mse = 623741.4\nsamples = 8\nvalue = 30699.2"] ;
963 -> 965 ;
966 [label="ptratio <= -1.0\nmse = 430511.2\nsamples = 6\nvalue = 29658.5"] ;
962 -> 966 ;
967 [label="mse = 1347.8\nsamples = 2\nvalue = 28707.6"] ;
966 -> 967 ;
968 [label="mse = 60871.3\nsamples = 4\nvalue = 30066.0"] ;
966 -> 968 ;
969 [label="median_home_value_sq <= 3.4\nmse = 374666.6\nsamples = 9\nvalue = 29483.6"] ;
961 -> 969 ;
970 [label="zn <= -0.5\nmse = 255332.1\nsamples = 6\nvalue = 29824.8"] ;
969 -> 970 ;
971 [label="mse = 111005.6\nsamples = 2\nvalue = 29010.5"] ;
970 -> 971 ;
972 [label="mse = 52997.9\nsamples = 4\nvalue = 30057.4"] ;
970 -> 972 ;
973 [label="rm <= 1.9\nmse = 2580.2\nsamples = 3\nvalue = 28869.3"] ;
969 -> 973 ;
974 [label="mse = 0.0\nsamples = 1\nvalue = 28955.1"] ;
973 -> 974 ;
975 [label="mse = 926.3\nsamples = 2\nvalue = 28847.9"] ;
973 -> 975 ;
976 [label="log_population <= -1.0\nmse = 3591256.8\nsamples = 98\nvalue = 31577.5"] ;
960 -> 976 ;
977 [label="tax <= 0.4\nmse = 2036467.9\nsamples = 32\nvalue = 30872.1"] ;
976 -> 977 ;
978 [label="log_population <= -1.2\nmse = 977966.3\nsamples = 18\nvalue = 30300.0"] ;
977 -> 978 ;
979 [label="mse = 926198.2\nsamples = 12\nvalue = 30632.9"] ;
978 -> 979 ;
980 [label="mse = 312051.7\nsamples = 6\nvalue = 29567.8"] ;
978 -> 980 ;
981 [label="crim <= -0.1\nmse = 2407806.7\nsamples = 14\nvalue = 31704.1"] ;
977 -> 981 ;
982 [label="mse = 0.0\nsamples = 1\nvalue = 36060.7"] ;
981 -> 982 ;
983 [label="mse = 1575651.1\nsamples = 13\nvalue = 31496.7"] ;
981 -> 983 ;
984 [label="median_income_sqrt <= 3.2\nmse = 4028475.4\nsamples = 66\nvalue = 31974.3"] ;
976 -> 984 ;
985 [label="age <= -0.3\nmse = 3683044.5\nsamples = 65\nvalue = 31879.5"] ;
984 -> 985 ;
986 [label="mse = 791233.5\nsamples = 6\nvalue = 29761.2"] ;
985 -> 986 ;
987 [label="mse = 3495780.2\nsamples = 59\nvalue = 32076.6"] ;
985 -> 987 ;
988 [label="mse = 0.0\nsamples = 1\nvalue = 36428.7"] ;
984 -> 988 ;
989 [label="median_home_value <= 3.5\nmse = 5536842.5\nsamples = 4\nvalue = 34705.4"] ;
959 -> 989 ;
990 [label="median_income_sqrt <= 2.2\nmse = 83003.7\nsamples = 2\nvalue = 36532.2"] ;
989 -> 990 ;
991 [label="mse = 0.0\nsamples = 1\nvalue = 36736.0"] ;
990 -> 991 ;
992 [label="mse = -0.0\nsamples = 1\nvalue = 36124.8"] ;
990 -> 992 ;
993 [label="log_population <= 0.7\nmse = 1203244.5\nsamples = 2\nvalue = 31965.3"] ;
989 -> 993 ;
994 [label="mse = 0.0\nsamples = 1\nvalue = 33062.2"] ;
993 -> 994 ;
995 [label="mse = -0.0\nsamples = 1\nvalue = 30868.3"] ;
993 -> 995 ;
996 [label="log_population <= -1.3\nmse = 6288763.4\nsamples = 19\nvalue = 33777.0"] ;
922 -> 996 ;
997 [label="rm <= 0.7\nmse = 2181361.0\nsamples = 5\nvalue = 35384.8"] ;
996 -> 997 ;
998 [label="mse = 0.0\nsamples = 1\nvalue = 31928.7"] ;
997 -> 998 ;
999 [label="rm <= 2.1\nmse = 11383.1\nsamples = 4\nvalue = 36013.2"] ;
997 -> 999 ;
1000 [label="median_income_sqrt <= 3.4\nmse = 2760.1\nsamples = 3\nvalue = 36042.9"] ;
999 -> 1000 ;
1001 [label="zn <= 1.8\nmse = 320.6\nsamples = 2\nvalue = 36084.3"] ;
1000 -> 1001 ;
1002 [label="mse = 0.0\nsamples = 1\nvalue = 36066.4"] ;
1001 -> 1002 ;
1003 [label="mse = 0.0\nsamples = 1\nvalue = 36102.2"] ;
1001 -> 1003 ;
1004 [label="mse = -0.0\nsamples = 1\nvalue = 35980.9"] ;
1000 -> 1004 ;
1005 [label="mse = -0.0\nsamples = 1\nvalue = 35715.3"] ;
999 -> 1005 ;
1006 [label="median_home_value_sq <= 3.5\nmse = 6403831.3\nsamples = 14\nvalue = 32973.2"] ;
996 -> 1006 ;
1007 [label="median_home_value_sq <= 3.2\nmse = 4169000.5\nsamples = 6\nvalue = 34165.0"] ;
1006 -> 1007 ;
1008 [label="median_income_sqrt <= 3.5\nmse = 5786.9\nsamples = 2\nvalue = 30806.8"] ;
1007 -> 1008 ;
1009 [label="mse = -0.0\nsamples = 1\nvalue = 30850.7"] ;
1008 -> 1009 ;
1010 [label="mse = 0.0\nsamples = 1\nvalue = 30675.0"] ;
1008 -> 1010 ;
1011 [label="rm <= 2.4\nmse = 544503.6\nsamples = 4\nvalue = 35284.4"] ;
1007 -> 1011 ;
1012 [label="log_population <= -0.9\nmse = 10835.1\nsamples = 2\nvalue = 36191.1"] ;
1011 -> 1012 ;
1013 [label="mse = -0.0\nsamples = 1\nvalue = 36251.2"] ;
1012 -> 1013 ;
1014 [label="mse = -0.0\nsamples = 1\nvalue = 36010.8"] ;
1012 -> 1014 ;
1015 [label="median_home_value <= 2.9\nmse = 194666.3\nsamples = 2\nvalue = 34831.0"] ;
1011 -> 1015 ;
1016 [label="mse = 0.0\nsamples = 1\nvalue = 35272.2"] ;
1015 -> 1016 ;
1017 [label="mse = 0.0\nsamples = 1\nvalue = 34389.8"] ;
1015 -> 1017 ;
1018 [label="median_home_value <= 3.2\nmse = 4070573.7\nsamples = 8\nvalue = 31066.2"] ;
1006 -> 1018 ;
1019 [label="median_income_sqrt <= 3.3\nmse = 1274881.8\nsamples = 7\nvalue = 30496.3"] ;
1018 -> 1019 ;
1020 [label="ptratio <= -1.1\nmse = 7690.8\nsamples = 3\nvalue = 31568.4"] ;
1019 -> 1020 ;
1021 [label="ptratio <= -1.7\nmse = 61.1\nsamples = 2\nvalue = 31517.9"] ;
1020 -> 1021 ;
1022 [label="mse = 0.0\nsamples = 1\nvalue = 31512.4"] ;
1021 -> 1022 ;
1023 [label="mse = -0.0\nsamples = 1\nvalue = 31528.9"] ;
1021 -> 1023 ;
1024 [label="mse = -0.0\nsamples = 1\nvalue = 31719.8"] ;
1020 -> 1024 ;
1025 [label="tax <= -1.0\nmse = 633745.3\nsamples = 4\nvalue = 29638.7"] ;
1019 -> 1025 ;
1026 [label="mse = 0.0\nsamples = 1\nvalue = 31168.0"] ;
1025 -> 1026 ;
1027 [label="tax <= -0.8\nmse = 61357.8\nsamples = 3\nvalue = 29256.4"] ;
1025 -> 1027 ;
1028 [label="mse = 0.0\nsamples = 1\nvalue = 28833.9"] ;
1027 -> 1028 ;
1029 [label="mse = 2483.7\nsamples = 2\nvalue = 29397.2"] ;
1027 -> 1029 ;
1030 [label="mse = 0.0\nsamples = 1\nvalue = 36195.4"] ;
1018 -> 1030 ;
}